{"learner":{"attributes":{"scikit_learn":"{\"_estimator_type\": \"classifier\"}"},"feature_names":["Age","Gender","Years at Company","Monthly Income","Work-Life Balance","Job Satisfaction","Performance Rating","Number of Promotions","Overtime","Distance from Home","Education Level","Number of Dependents","Job Level","Company Size","Company Tenure","Remote Work","Leadership Opportunities","Innovation Opportunities","Company Reputation","Employee Recognition","Marital Status_Married","Marital Status_Single"],"feature_types":["int","int","int","int","int","int","int","int","int","int","int","int","int","int","int","int","int","int","int","int","i","i"],"gradient_booster":{"model":{"cats":{"enc":[],"feature_segments":[],"sorted_idx":[]},"gbtree_model_param":{"num_parallel_tree":"1","num_trees":"300"},"iteration_indptr":[0,1,2,3,4,5,6,7,8,9,10,11,12,13,14,15,16,17,18,19,20,21,22,23,24,25,26,27,28,29,30,31,32,33,34,35,36,37,38,39,40,41,42,43,44,45,46,47,48,49,50,51,52,53,54,55,56,57,58,59,60,61,62,63,64,65,66,67,68,69,70,71,72,73,74,75,76,77,78,79,80,81,82,83,84,85,86,87,88,89,90,91,92,93,94,95,96,97,98,99,100,101,102,103,104,105,106,107,108,109,110,111,112,113,114,115,116,117,118,119,120,121,122,123,124,125,126,127,128,129,130,131,132,133,134,135,136,137,138,139,140,141,142,143,144,145,146,147,148,149,150,151,152,153,154,155,156,157,158,159,160,161,162,163,164,165,166,167,168,169,170,171,172,173,174,175,176,177,178,179,180,181,182,183,184,185,186,187,188,189,190,191,192,193,194,195,196,197,198,199,200,201,202,203,204,205,206,207,208,209,210,211,212,213,214,215,216,217,218,219,220,221,222,223,224,225,226,227,228,229,230,231,232,233,234,235,236,237,238,239,240,241,242,243,244,245,246,247,248,249,250,251,252,253,254,255,256,257,258,259,260,261,262,263,264,265,266,267,268,269,270,271,272,273,274,275,276,277,278,279,280,281,282,283,284,285,286,287,288,289,290,291,292,293,294,295,296,297,298,299,300],"tree_info":[0,0,0,0,0,0,0,0,0,0,0,0,0,0,0,0,0,0,0,0,0,0,0,0,0,0,0,0,0,0,0,0,0,0,0,0,0,0,0,0,0,0,0,0,0,0,0,0,0,0,0,0,0,0,0,0,0,0,0,0,0,0,0,0,0,0,0,0,0,0,0,0,0,0,0,0,0,0,0,0,0,0,0,0,0,0,0,0,0,0,0,0,0,0,0,0,0,0,0,0,0,0,0,0,0,0,0,0,0,0,0,0,0,0,0,0,0,0,0,0,0,0,0,0,0,0,0,0,0,0,0,0,0,0,0,0,0,0,0,0,0,0,0,0,0,0,0,0,0,0,0,0,0,0,0,0,0,0,0,0,0,0,0,0,0,0,0,0,0,0,0,0,0,0,0,0,0,0,0,0,0,0,0,0,0,0,0,0,0,0,0,0,0,0,0,0,0,0,0,0,0,0,0,0,0,0,0,0,0,0,0,0,0,0,0,0,0,0,0,0,0,0,0,0,0,0,0,0,0,0,0,0,0,0,0,0,0,0,0,0,0,0,0,0,0,0,0,0,0,0,0,0,0,0,0,0,0,0,0,0,0,0,0,0,0,0,0,0,0,0,0,0,0,0,0,0,0,0,0,0,0,0,0,0,0,0,0,0,0,0,0,0,0,0,0,0,0,0,0,0],"trees":[{"base_weights":[5.496343E-4,-4.1285342E-1,7.661417E-1,-2.033394E-1,-1.300759E0,9.8990506E-1,-1.8069515E-1,-1.3461001E-1,-1.1503505E0,-9.2197686E-1,-1.3907557E0,1.0613668E0,4.083948E-2,-4.6848053E-1,9.074594E-2,8.490641E-3,-1.6779544E-2,-6.82636E-2,-4.696427E-2,-5.5693608E-2,-2.870672E-2,-5.946939E-2,-7.497764E-2,5.5960357E-2,3.0050336E-4,1.7521283E-2,-8.977841E-3,-2.0567385E-2,-7.355328E-2,3.3708107E-2,-2.9638181E-3],"categories":[],"categories_nodes":[],"categories_segments":[],"categories_sizes":[],"default_left":[0,0,0,0,0,0,0,0,0,0,0,0,0,0,0,0,0,0,0,0,0,0,0,0,0,0,0,0,0,0,0],"id":0,"left_children":[1,3,5,7,9,11,13,15,17,19,21,23,25,27,29,-1,-1,-1,-1,-1,-1,-1,-1,-1,-1,-1,-1,-1,-1,-1,-1],"loss_changes":[3.7551443E3,1.432982E3,8.815952E2,4.0564807E2,4.8852783E1,2.281875E2,6.223005E1,3.5577545E2,1.7848633E1,1.8405075E1,2.4208252E1,1.9102222E2,1.6212132E1,2.1537857E1,3.5970314E1,0E0,0E0,0E0,0E0,0E0,0E0,0E0,0E0,0E0,0E0,0E0,0E0,0E0,0E0,0E0,0E0],"parents":[2147483647,0,0,1,1,2,2,3,3,4,4,5,5,6,6,7,7,8,8,9,9,10,10,11,11,12,12,13,13,14,14],"right_children":[2,4,6,8,10,12,14,16,18,20,22,24,26,28,30,-1,-1,-1,-1,-1,-1,-1,-1,-1,-1,-1,-1,-1,-1,-1,-1],"split_conditions":[1E0,1E0,1E0,3E0,2E0,3E0,5E1,3E0,4.9E1,6.4E1,1E1,5E0,3E0,5E0,2E0,8.490641E-3,-1.6779544E-2,-6.82636E-2,-4.696427E-2,-5.5693608E-2,-2.870672E-2,-5.946939E-2,-7.497764E-2,5.5960357E-2,3.0050336E-4,1.7521283E-2,-8.977841E-3,-2.0567385E-2,-7.355328E-2,3.3708107E-2,-2.9638181E-3],"split_indices":[21,15,15,7,18,7,9,18,9,9,2,10,18,10,18,0,0,0,0,0,0,0,0,0,0,0,0,0,0,0,0],"split_type":[0,0,0,0,0,0,0,0,0,0,0,0,0,0,0,0,0,0,0,0,0,0,0,0,0,0,0,0,0,0,0],"sum_hessian":[1.1862666E4,7.703438E3,4.159228E3,6.2337295E3,1.4697086E3,3.3641438E3,7.9508417E2,5.812993E3,4.207362E2,2.843149E2,1.1853937E3,3.1284617E3,2.356821E2,3.8557092E2,4.0951324E2,2.3116797E3,3.5013132E3,2.0575421E2,2.1498198E2,1.818119E2,1.0250301E2,4.19988E2,7.654057E2,2.9658535E3,1.6260818E2,9.776443E1,1.3791768E2,3.661178E2,1.9453127E1,8.304988E1,3.2646335E2],"tree_param":{"num_deleted":"0","num_feature":"22","num_nodes":"31","size_leaf_vector":"1"}},{"base_weights":[1.8391999E-3,-3.9782172E-1,7.4228984E-1,6.258108E-2,-7.661247E-1,9.568586E-1,-1.7716034E-1,2.9125762E-1,-9.036961E-1,-5.8972824E-1,-1.5144085E0,1.3418697E0,6.5406245E-1,3.1732047E-1,-5.6958437E-1,1.8661289E-2,-3.7881017E-2,-4.1941155E-2,-8.7271184E-2,-2.4630945E-2,-5.6314465E-2,-5.7767935E-2,-8.015391E-2,7.056885E-2,1.9738732E-2,3.6253087E-2,-1.4792738E-2,-1.4275749E-3,3.3315003E-2,-2.5238318E-2,-7.183645E-2],"categories":[],"categories_nodes":[],"categories_segments":[],"categories_sizes":[],"default_left":[0,0,0,0,0,0,0,0,0,0,0,0,0,0,0,0,0,0,0,0,0,0,0,0,0,0,0,0,0,0,0],"id":1,"left_children":[1,3,5,7,9,11,13,15,17,19,21,23,25,27,29,-1,-1,-1,-1,-1,-1,-1,-1,-1,-1,-1,-1,-1,-1,-1,-1],"loss_changes":[3.526111E3,1.3122489E3,8.242073E2,7.604181E2,5.6659717E2,3.9394678E2,1.537015E2,2.3951376E2,3.4498047E1,1.808136E2,2.4238892E1,9.752954E1,1.2820361E2,4.2349396E1,2.408751E1,0E0,0E0,0E0,0E0,0E0,0E0,0E0,0E0,0E0,0E0,0E0,0E0,0E0,0E0,0E0,0E0],"parents":[2147483647,0,0,1,1,2,2,3,3,4,4,5,5,6,6,7,7,8,8,9,9,10,10,11,11,12,12,13,13,14,14],"right_children":[2,4,6,8,10,12,14,16,18,20,22,24,26,28,30,-1,-1,-1,-1,-1,-1,-1,-1,-1,-1,-1,-1,-1,-1,-1,-1],"split_conditions":[1E0,3E0,1E0,1E0,1E0,3E0,3E0,3E0,3E0,4E0,2E0,3E0,3E0,5E1,3E0,1.8661289E-2,-3.7881017E-2,-4.1941155E-2,-8.7271184E-2,-2.4630945E-2,-5.6314465E-2,-5.7767935E-2,-8.015391E-2,7.056885E-2,1.9738732E-2,3.6253087E-2,-1.4792738E-2,-1.4275749E-3,3.3315003E-2,-2.5238318E-2,-7.183645E-2],"split_indices":[21,4,15,15,15,4,4,7,7,11,18,7,7,9,7,0,0,0,0,0,0,0,0,0,0,0,0,0,0,0,0],"split_type":[0,0,0,0,0,0,0,0,0,0,0,0,0,0,0,0,0,0,0,0,0,0,0,0,0,0,0,0,0,0,0],"sum_hessian":[1.1913391E4,7.7375063E3,4.1758843E3,3.4391606E3,4.2983457E3,3.3857285E3,7.9015594E2,2.7815784E3,6.575822E2,3.4798193E3,8.185262E2,1.4890022E3,1.8967262E3,3.4970078E2,4.404552E2,2.5805562E3,2.0102219E2,6.123817E2,4.5200527E1,2.9481648E3,5.316546E2,1.648857E2,6.536405E2,1.3867393E3,1.0226297E2,1.7650393E3,1.3168689E2,1.7609352E2,1.7360724E2,4.1129358E2,2.9161623E1],"tree_param":{"num_deleted":"0","num_feature":"22","num_nodes":"31","size_leaf_vector":"1"}},{"base_weights":[3.1610571E-3,-3.7029234E-1,6.924524E-1,6.713339E-2,-7.2146386E-1,8.97516E-1,-1.8577261E-1,2.8234875E-1,-8.5336393E-1,-5.5699676E-1,-1.4138515E0,1.2781161E0,6.026548E-1,2.5689834E-1,-5.370164E-1,1.7877305E-2,-3.56142E-2,-5.2581895E-2,-3.0016396E-2,-1.3847734E-2,-3.7301637E-2,-5.5660702E-2,-7.4475564E-2,6.643539E-2,1.8754005E-2,3.3604413E-2,-1.5797872E-2,-3.829558E-3,3.017098E-2,-1.1142692E-2,-3.5230517E-2],"categories":[],"categories_nodes":[],"categories_segments":[],"categories_sizes":[],"default_left":[0,0,0,0,0,0,0,0,0,0,0,0,0,0,0,0,0,0,0,0,0,0,0,0,0,0,0,0,0,0,0],"id":2,"left_children":[1,3,5,7,9,11,13,15,17,19,21,23,25,27,29,-1,-1,-1,-1,-1,-1,-1,-1,-1,-1,-1,-1,-1,-1,-1,-1],"loss_changes":[3.0580925E3,1.1836597E3,7.5198535E2,6.801662E2,4.8592432E2,3.7905933E2,1.2313873E2,2.0836896E2,3.20112E1,1.8271301E2,1.6987549E1,6.696094E1,1.219718E2,4.0569405E1,2.3084084E1,0E0,0E0,0E0,0E0,0E0,0E0,0E0,0E0,0E0,0E0,0E0,0E0,0E0,0E0,0E0,0E0],"parents":[2147483647,0,0,1,1,2,2,3,3,4,4,5,5,6,6,7,7,8,8,9,9,10,10,11,11,12,12,13,13,14,14],"right_children":[2,4,6,8,10,12,14,16,18,20,22,24,26,28,30,-1,-1,-1,-1,-1,-1,-1,-1,-1,-1,-1,-1,-1,-1,-1,-1],"split_conditions":[1E0,3E0,1E0,1E0,1E0,3E0,3E0,3E0,5.7E1,3E0,2E0,5E0,3E0,5.1E1,1E1,1.7877305E-2,-3.56142E-2,-5.2581895E-2,-3.0016396E-2,-1.3847734E-2,-3.7301637E-2,-5.5660702E-2,-7.4475564E-2,6.643539E-2,1.8754005E-2,3.3604413E-2,-1.5797872E-2,-3.829558E-3,3.017098E-2,-1.1142692E-2,-3.5230517E-2],"split_indices":[21,4,15,15,15,4,4,7,9,18,18,10,7,9,2,0,0,0,0,0,0,0,0,0,0,0,0,0,0,0,0],"split_type":[0,0,0,0,0,0,0,0,0,0,0,0,0,0,0,0,0,0,0,0,0,0,0,0,0,0,0,0,0,0,0],"sum_hessian":[1.1877866E4,7.7042295E3,4.1736367E3,3.4311433E3,4.2730864E3,3.3835608E3,7.90076E2,2.78151E3,6.496331E2,3.454356E3,8.1873016E2,1.4755804E3,1.9079802E3,3.4966428E2,4.4041174E2,2.586596E3,1.9491422E2,3.6246042E2,2.871727E2,1.3930807E3,2.0612754E3,1.677764E2,6.5095374E2,1.3968518E3,7.87286E1,1.7741493E3,1.3383098E2,1.7857957E2,1.7108469E2,1.5402136E2,2.8639038E2],"tree_param":{"num_deleted":"0","num_feature":"22","num_nodes":"31","size_leaf_vector":"1"}},{"base_weights":[-6.7601725E-3,2.6700762E-1,-1.0989037E0,-1.0309991E-1,9.445503E-1,-1.3920822E0,-5.309401E-1,2.7120012E-1,-4.7802824E-1,1.2754431E0,6.1622554E-1,-1.2168279E0,-1.5309656E0,-2.607722E-1,-7.4046737E-1,1.9084211E-2,-1.6686311E-2,-3.5093457E-2,-1.21756885E-2,6.8288825E-2,3.819635E-2,1.7040616E-2,4.4147458E-2,-6.9394775E-2,-5.1660564E-2,-6.9052935E-2,-8.132145E-2,-2.6595905E-2,-7.5284555E-4,-2.2354396E-2,-4.7166295E-2],"categories":[],"categories_nodes":[],"categories_segments":[],"categories_sizes":[],"default_left":[0,0,0,0,0,0,0,0,0,0,0,0,0,0,0,0,0,0,0,0,0,0,0,0,0,0,0,0,0,0,0],"id":3,"left_children":[1,3,5,7,9,11,13,15,17,19,21,23,25,27,29,-1,-1,-1,-1,-1,-1,-1,-1,-1,-1,-1,-1,-1,-1,-1,-1],"loss_changes":[3.5421213E3,2.3754277E3,3.9464014E2,8.599582E2,3.627732E2,3.6239502E1,4.5659134E1,2.0508795E2,1.6052686E2,7.592651E1,1.232337E2,2.0458374E1,1.0196411E1,2.3666838E1,2.669638E1,0E0,0E0,0E0,0E0,0E0,0E0,0E0,0E0,0E0,0E0,0E0,0E0,0E0,0E0,0E0,0E0],"parents":[2147483647,0,0,1,1,2,2,3,3,4,4,5,5,6,6,7,7,8,8,9,9,10,10,11,11,12,12,13,13,14,14],"right_children":[2,4,6,8,10,12,14,16,18,20,22,24,26,28,30,-1,-1,-1,-1,-1,-1,-1,-1,-1,-1,-1,-1,-1,-1,-1,-1],"split_conditions":[3E0,1E0,1E0,2E0,2E0,1E0,1E0,4E0,5.1E1,4E0,5E1,5.1E1,3E0,4.7E1,3E0,1.9084211E-2,-1.6686311E-2,-3.5093457E-2,-1.21756885E-2,6.8288825E-2,3.819635E-2,1.7040616E-2,4.4147458E-2,-6.9394775E-2,-5.1660564E-2,-6.9052935E-2,-8.132145E-2,-2.6595905E-2,-7.5284555E-4,-2.2354396E-2,-4.7166295E-2],"split_indices":[12,21,21,12,12,1,1,11,9,11,9,9,18,9,18,0,0,0,0,0,0,0,0,0,0,0,0,0,0,0,0],"split_type":[0,0,0,0,0,0,0,0,0,0,0,0,0,0,0,0,0,0,0,0,0,0,0,0,0,0,0,0,0,0,0],"sum_hessian":[1.1844827E4,9.471388E3,2.373439E3,6.1259414E3,3.3454465E3,1.564437E3,8.0900195E2,3.0656777E3,3.0602637E3,1.66477E3,1.6806766E3,6.9596844E2,8.6846857E2,3.543464E2,4.5465555E2,2.5925432E3,4.7313452E2,1.5647439E3,1.4955198E3,1.4134806E3,2.5128941E2,8.279894E2,8.526872E2,3.5690094E2,3.390675E2,3.4390256E2,5.2456604E2,1.6790219E2,1.864442E2,1.8716963E2,2.674859E2],"tree_param":{"num_deleted":"0","num_feature":"22","num_nodes":"31","size_leaf_vector":"1"}},{"base_weights":[-3.3894517E-3,-3.419499E-1,6.22743E-1,6.263323E-2,-6.663674E-1,1.0015832E0,3.2662657E-1,1.3381602E-1,-8.8410527E-1,-6.137937E-1,-1.4206175E0,1.067722E0,7.937124E-2,3.9245063E-1,-5.3402877E-1,9.738845E-3,-4.545264E-2,-1.44338505E-2,-5.0692E-2,-1.8042728E-2,-3.9075866E-2,-5.52614E-2,-7.632512E-2,5.7971247E-2,2.8458834E-2,3.9982628E-2,-5.028462E-3,2.4512926E-2,-8.177864E-3,-4.587182E-2,-1.2323534E-2],"categories":[],"categories_nodes":[],"categories_segments":[],"categories_sizes":[],"default_left":[0,0,0,0,0,0,0,0,0,0,0,0,0,0,0,0,0,0,0,0,0,0,0,0,0,0,0,0,0,0,0],"id":4,"left_children":[1,3,5,7,9,11,13,15,17,19,21,23,25,27,29,-1,-1,-1,-1,-1,-1,-1,-1,-1,-1,-1,-1,-1,-1,-1,-1],"loss_changes":[2.512513E3,1.00974713E3,4.66302E2,2.3088864E2,1.6842749E2,1.1119385E2,1.3255937E2,2.027074E2,1.8215317E1,1.6911658E2,7.578064E0,7.716382E1,1.6043867E1,1.1813208E2,1.8120304E1,0E0,0E0,0E0,0E0,0E0,0E0,0E0,0E0,0E0,0E0,0E0,0E0,0E0,0E0,0E0,0E0],"parents":[2147483647,0,0,1,1,2,2,3,3,4,4,5,5,6,6,7,7,8,8,9,9,10,10,11,11,12,12,13,13,14,14],"right_children":[2,4,6,8,10,12,14,16,18,20,22,24,26,28,30,-1,-1,-1,-1,-1,-1,-1,-1,-1,-1,-1,-1,-1,-1,-1,-1],"split_conditions":[1E0,3E0,3E0,3E0,3E0,3E0,3E0,5E0,2.6E1,3E0,8E0,4E0,2E0,4E0,4.2E1,9.738845E-3,-4.545264E-2,-1.44338505E-2,-5.0692E-2,-1.8042728E-2,-3.9075866E-2,-5.52614E-2,-7.632512E-2,5.7971247E-2,2.8458834E-2,3.9982628E-2,-5.028462E-3,2.4512926E-2,-8.177864E-3,-4.587182E-2,-1.2323534E-2],"split_indices":[21,4,4,7,7,7,7,10,0,18,2,11,18,11,9,0,0,0,0,0,0,0,0,0,0,0,0,0,0,0,0],"split_type":[0,0,0,0,0,0,0,0,0,0,0,0,0,0,0,0,0,0,0,0,0,0,0,0,0,0,0,0,0,0,0],"sum_hessian":[1.1850384E4,7.691768E3,4.1586157E3,3.4233247E3,4.2684434E3,1.8234194E3,2.335196E3,3.1847317E3,2.3859299E2,3.9920012E3,2.7644196E2,1.7012521E3,1.2216737E2,2.1697915E3,1.6540454E2,3.009618E3,1.7511392E2,4.3262287E1,1.953307E2,1.592919E3,2.3990823E3,7.235695E1,2.04085E2,1.4358203E3,2.6543176E2,2.373098E1,9.843639E1,1.845301E3,3.2449048E2,6.994924E1,9.545531E1],"tree_param":{"num_deleted":"0","num_feature":"22","num_nodes":"31","size_leaf_vector":"1"}},{"base_weights":[1.4250921E-3,2.665989E-1,-1.0556214E0,-7.07419E-2,8.8811606E-1,-1.3165504E0,-5.5735415E-1,1.3460606E-1,-9.6166015E-1,1.083832E0,7.2884314E-2,-1.2418544E0,-8.157655E-2,-3.6521626E-1,-1.4031092E0,2.5338674E-2,-1.2217018E-2,-3.5569612E-2,-6.0630467E-2,6.9872364E-2,3.8173955E-2,2.2089303E-2,-1.3602852E-2,-5.243922E-2,-6.9444165E-2,-3.3094771E-3,-2.9937321E-2,-5.403573E-2,-7.380807E-2],"categories":[],"categories_nodes":[],"categories_segments":[],"categories_sizes":[],"default_left":[0,0,0,0,0,0,0,0,0,0,0,0,0,0,0,0,0,0,0,0,0,0,0,0,0,0,0,0,0],"id":5,"left_children":[1,3,5,7,9,11,13,15,17,19,21,23,-1,25,27,-1,-1,-1,-1,-1,-1,-1,-1,-1,-1,-1,-1,-1,-1],"loss_changes":[3.3168306E3,1.9834644E3,3.0780542E2,1.1220997E3,5.309524E2,3.4601807E1,1.3231078E2,7.0314343E2,7.1292114E1,2.6856958E2,8.2247635E1,3.4383545E1,0E0,4.656637E1,1.960022E0,0E0,0E0,0E0,0E0,0E0,0E0,0E0,0E0,0E0,0E0,0E0,0E0,0E0,0E0],"parents":[2147483647,0,0,1,1,2,2,3,3,4,4,5,5,6,6,7,7,8,8,9,9,10,10,11,11,13,13,14,14],"right_children":[2,4,6,8,10,12,14,16,18,20,22,24,-1,26,28,-1,-1,-1,-1,-1,-1,-1,-1,-1,-1,-1,-1,-1,-1],"split_conditions":[3E0,1E0,1E0,1E0,1E0,1E0,1E0,2E0,2E0,2E0,2E0,1E0,-8.157655E-2,1E0,2E0,2.5338674E-2,-1.2217018E-2,-3.5569612E-2,-6.0630467E-2,6.9872364E-2,3.8173955E-2,2.2089303E-2,-1.3602852E-2,-5.243922E-2,-6.9444165E-2,-3.3094771E-3,-2.9937321E-2,-5.403573E-2,-7.380807E-2],"split_indices":[12,21,21,15,15,15,15,12,12,12,12,1,0,1,18,0,0,0,0,0,0,0,0,0,0,0,0,0,0],"split_type":[0,0,0,0,0,0,0,0,0,0,0,0,0,0,0,0,0,0,0,0,0,0,0,0,0,0,0,0,0],"sum_hessian":[1.1831098E4,9.458946E3,2.3721516E3,6.131719E3,3.3272266E3,1.5557861E3,8.1636536E2,4.9838413E3,1.1478779E3,2.6828215E3,6.444051E2,1.261557E3,2.9422916E2,6.6640405E2,1.4996129E2,2.514241E3,2.4696003E3,5.7663904E2,5.712389E2,1.3539679E3,1.3288536E3,3.1125204E2,3.3315305E2,5.4890234E2,7.1265466E2,2.9278592E2,3.7361813E2,3.0620455E1,1.19340836E2],"tree_param":{"num_deleted":"0","num_feature":"22","num_nodes":"29","size_leaf_vector":"1"}},{"base_weights":[-1.11819674E-4,1.7525E-1,-7.6027E-1,5.29167E-1,-1.792318E-1,-4.2339855E-1,-1.0999838E0,8.717403E-1,2.6232487E-1,2.5316066E-1,-5.280806E-1,1.2684031E-3,-7.650976E-1,-8.1569886E-1,-1.3252759E0,4.6562176E-2,3.634808E-3,1.6393183E-2,-3.0010773E-2,1.6204877E-2,-3.566235E-2,-2.1501618E-2,-5.3188384E-2,1.5215004E-2,-1.1794568E-2,-4.547708E-2,-2.216739E-2,-3.6122363E-2,-6.483492E-2,-7.305553E-2,-5.9729375E-2],"categories":[],"categories_nodes":[],"categories_segments":[],"categories_sizes":[],"default_left":[0,0,0,0,0,0,0,0,0,0,0,0,0,0,0,0,0,0,0,0,0,0,0,0,0,0,0,0,0,0,0],"id":6,"left_children":[1,3,5,7,9,11,13,15,17,19,21,23,25,27,29,-1,-1,-1,-1,-1,-1,-1,-1,-1,-1,-1,-1,-1,-1,-1,-1],"loss_changes":[1.5693729E3,1.200239E3,2.5208374E2,4.3737903E2,7.211497E2,1.6102432E2,6.925256E1,9.957385E1,1.5240062E2,1.4660097E2,1.3851428E2,3.5701176E1,2.8174408E1,2.0957031E1,9.101807E0,0E0,0E0,0E0,0E0,0E0,0E0,0E0,0E0,0E0,0E0,0E0,0E0,0E0,0E0,0E0,0E0],"parents":[2147483647,0,0,1,1,2,2,3,3,4,4,5,5,6,6,7,7,8,8,9,9,10,10,11,11,12,12,13,13,14,14],"right_children":[2,4,6,8,10,12,14,16,18,20,22,24,26,28,30,-1,-1,-1,-1,-1,-1,-1,-1,-1,-1,-1,-1,-1,-1,-1,-1],"split_conditions":[1E0,1E0,1E0,3E0,3E0,3E0,3E0,3E0,3E0,3E0,4E0,1E0,7E1,4E0,4.9E1,4.6562176E-2,3.634808E-3,1.6393183E-2,-3.0010773E-2,1.6204877E-2,-3.566235E-2,-2.1501618E-2,-5.3188384E-2,1.5215004E-2,-1.1794568E-2,-4.547708E-2,-2.216739E-2,-3.6122363E-2,-6.483492E-2,-7.305553E-2,-5.9729375E-2],"split_indices":[15,20,20,4,4,4,4,7,7,7,11,1,9,11,9,0,0,0,0,0,0,0,0,0,0,0,0,0,0,0,0],"split_type":[0,0,0,0,0,0,0,0,0,0,0,0,0,0,0,0,0,0,0,0,0,0,0,0,0,0,0,0,0,0,0],"sum_hessian":[1.1771E4,9.565169E3,2.205831E3,4.786151E3,4.779018E3,1.1086768E3,1.0971543E3,2.0946992E3,2.6914517E3,2.1341045E3,2.6449136E3,4.947691E2,6.139076E2,4.8711234E2,6.10042E2,1.9493682E3,1.4533092E2,2.5019639E3,1.8948792E2,1.988787E3,1.4531757E2,2.2372302E3,4.076835E2,2.1709373E2,2.7767535E2,4.2243564E2,1.9147198E2,4.101067E2,7.7005646E1,2.9413968E2,3.1590234E2],"tree_param":{"num_deleted":"0","num_feature":"22","num_nodes":"31","size_leaf_vector":"1"}},{"base_weights":[-2.4068228E-3,2.5114205E-1,-1.0175112E0,-6.348249E-2,8.225649E-1,-1.2631912E0,-5.525215E-1,1.2192887E-1,-8.8521755E-1,1.0047951E0,6.1782196E-2,-1.0202528E0,-1.4520501E0,-1.2775798E-1,-8.954736E-1,2.7190361E-2,-1.0910997E-2,-2.7555196E-2,-5.8176007E-2,6.403658E-2,3.6367234E-2,2.3910396E-2,-1.3623649E-2,-4.5008693E-2,-7.7101134E-2,-6.0953952E-2,-7.549579E-2,3.310977E-3,-5.1197078E-2,-3.7385922E-2,-7.403516E-2],"categories":[],"categories_nodes":[],"categories_segments":[],"categories_sizes":[],"default_left":[0,0,0,0,0,0,0,0,0,0,0,0,0,0,0,0,0,0,0,0,0,0,0,0,0,0,0,0,0,0,0],"id":7,"left_children":[1,3,5,7,9,11,13,15,17,19,21,23,25,27,29,-1,-1,-1,-1,-1,-1,-1,-1,-1,-1,-1,-1,-1,-1,-1,-1],"loss_changes":[3.0241099E3,1.6902734E3,2.67563E2,9.240156E2,4.6276514E2,6.897681E1,1.184014E2,7.102406E2,1.0317438E2,2.0525732E2,9.007451E1,4.0905212E1,9.774902E0,6.345021E1,3.780194E1,0E0,0E0,0E0,0E0,0E0,0E0,0E0,0E0,0E0,0E0,0E0,0E0,0E0,0E0,0E0,0E0],"parents":[2147483647,0,0,1,1,2,2,3,3,4,4,5,5,6,6,7,7,8,8,9,9,10,10,11,11,12,12,13,13,14,14],"right_children":[2,4,6,8,10,12,14,16,18,20,22,24,26,28,30,-1,-1,-1,-1,-1,-1,-1,-1,-1,-1,-1,-1,-1,-1,-1,-1],"split_conditions":[3E0,1E0,1E0,1E0,1E0,3E0,3E0,3E0,3E0,2E0,3E0,1E0,2E0,1E0,1E0,2.7190361E-2,-1.0910997E-2,-2.7555196E-2,-5.8176007E-2,6.403658E-2,3.6367234E-2,2.3910396E-2,-1.3623649E-2,-4.5008693E-2,-7.7101134E-2,-6.0953952E-2,-7.549579E-2,3.310977E-3,-5.1197078E-2,-3.7385922E-2,-7.403516E-2],"split_indices":[12,21,21,15,15,4,4,4,4,12,4,15,18,15,15,0,0,0,0,0,0,0,0,0,0,0,0,0,0,0,0],"split_type":[0,0,0,0,0,0,0,0,0,0,0,0,0,0,0,0,0,0,0,0,0,0,0,0,0,0,0,0,0,0,0],"sum_hessian":[1.1747663E4,9.400416E3,2.347247E3,6.063017E3,3.337399E3,1.5346757E3,8.125715E2,4.9475366E3,1.1154808E3,2.6922131E3,6.45186E2,6.740342E2,8.6064154E2,3.636031E2,4.4896838E2,2.2081824E3,2.739354E3,5.0826633E2,6.072145E2,1.3479761E3,1.3442369E3,2.8708975E2,3.580962E2,5.501493E2,1.2388489E2,1.7562599E2,6.8501556E2,2.9966678E2,6.39363E1,3.6028378E2,8.8684586E1],"tree_param":{"num_deleted":"0","num_feature":"22","num_nodes":"31","size_leaf_vector":"1"}},{"base_weights":[-1.5959879E-3,2.3375055E-1,-9.4778395E-1,-6.586874E-2,7.8547573E-1,-1.2033373E0,-4.7067866E-1,1.1369175E-1,-8.6604387E-1,9.565231E-1,8.033127E-2,-1.0263608E0,-1.3461493E0,-2.9530397E-1,-1.2666851E0,2.3320468E-2,-1.2165535E-2,-3.1737015E-2,-5.469746E-2,6.099986E-2,3.4616753E-2,2.0613093E-2,-1.1670848E-2,-4.618314E-2,-7.204264E-2,-5.9585925E-2,-7.214692E-2,8.998112E-5,-2.6662877E-2,-4.4289727E-2,-6.683263E-2],"categories":[],"categories_nodes":[],"categories_segments":[],"categories_sizes":[],"default_left":[0,0,0,0,0,0,0,0,0,0,0,0,0,0,0,0,0,0,0,0,0,0,0,0,0,0,0,0,0,0,0],"id":8,"left_children":[1,3,5,7,9,11,13,15,17,19,21,23,25,27,29,-1,-1,-1,-1,-1,-1,-1,-1,-1,-1,-1,-1,-1,-1,-1,-1],"loss_changes":[2.6058608E3,1.549189E3,2.8363306E2,8.728218E2,3.9772473E2,3.696582E1,1.133539E2,6.249013E2,5.7995605E1,1.8390625E2,6.726285E1,2.769104E1,1.0783203E1,4.7289757E1,2.7276459E0,0E0,0E0,0E0,0E0,0E0,0E0,0E0,0E0,0E0,0E0,0E0,0E0,0E0,0E0,0E0,0E0],"parents":[2147483647,0,0,1,1,2,2,3,3,4,4,5,5,6,6,7,7,8,8,9,9,10,10,11,11,12,12,13,13,14,14],"right_children":[2,4,6,8,10,12,14,16,18,20,22,24,26,28,30,-1,-1,-1,-1,-1,-1,-1,-1,-1,-1,-1,-1,-1,-1,-1,-1],"split_conditions":[3E0,1E0,1E0,1E0,1E0,1E0,1E0,2E0,2E0,2E0,2E0,1E0,3E0,1E0,4.923E3,2.3320468E-2,-1.2165535E-2,-3.1737015E-2,-5.469746E-2,6.099986E-2,3.4616753E-2,2.0613093E-2,-1.1670848E-2,-4.618314E-2,-7.204264E-2,-5.9585925E-2,-7.214692E-2,8.998112E-5,-2.6662877E-2,-4.4289727E-2,-6.683263E-2],"split_indices":[12,21,21,15,15,1,15,12,12,12,12,15,18,1,3,0,0,0,0,0,0,0,0,0,0,0,0,0,0,0,0],"split_type":[0,0,0,0,0,0,0,0,0,0,0,0,0,0,0,0,0,0,0,0,0,0,0,0,0,0,0,0,0,0,0],"sum_hessian":[1.1700164E4,9.370244E3,2.32992E3,6.073083E3,3.2971616E3,1.5162462E3,8.136737E2,4.9607427E3,1.1123402E3,2.6532131E3,6.4394836E2,6.8078546E2,8.354608E2,6.678952E2,1.4577847E2,2.4951921E3,2.4655505E3,5.5393286E2,5.5840735E2,1.3265903E3,1.3266228E3,3.1275482E2,3.3119357E2,5.481898E2,1.3259564E2,3.2701257E2,5.084482E2,2.9747137E2,3.7042383E2,2.474288E1,1.2103559E2],"tree_param":{"num_deleted":"0","num_feature":"22","num_nodes":"31","size_leaf_vector":"1"}},{"base_weights":[-4.2640953E-3,2.2299318E-1,-9.260098E-1,-6.0267065E-2,7.456065E-1,-1.1538604E0,-5.051346E-1,1.0938602E-1,-8.192455E-1,9.159587E-1,3.6107857E-2,-9.897349E-1,-1.286036E0,-3.420884E-1,-1.2266716E0,2.2326155E-2,-1.17149735E-2,-2.8192813E-2,-5.3781617E-2,5.8906764E-2,3.2599162E-2,1.867648E-2,-1.3888073E-2,-4.458935E-2,-6.980297E-2,-5.654298E-2,-6.933866E-2,-1.802494E-3,-2.7478216E-2,-4.0908482E-2,-6.643056E-2],"categories":[],"categories_nodes":[],"categories_segments":[],"categories_sizes":[],"default_left":[0,0,0,0,0,0,0,0,0,0,0,0,0,0,0,0,0,0,0,0,0,0,0,0,0,0,0,0,0,0,0],"id":9,"left_children":[1,3,5,7,9,11,13,15,17,19,21,23,25,27,29,-1,-1,-1,-1,-1,-1,-1,-1,-1,-1,-1,-1,-1,-1,-1,-1],"loss_changes":[2.4412612E3,1.3840641E3,2.2046448E2,7.809026E2,3.971621E2,3.1151855E1,9.5034134E1,5.744682E2,7.194043E1,1.8263135E2,6.759933E1,2.5463684E1,1.1321655E1,4.2091293E1,5.1246643E0,0E0,0E0,0E0,0E0,0E0,0E0,0E0,0E0,0E0,0E0,0E0,0E0,0E0,0E0,0E0,0E0],"parents":[2147483647,0,0,1,1,2,2,3,3,4,4,5,5,6,6,7,7,8,8,9,9,10,10,11,11,12,12,13,13,14,14],"right_children":[2,4,6,8,10,12,14,16,18,20,22,24,26,28,30,-1,-1,-1,-1,-1,-1,-1,-1,-1,-1,-1,-1,-1,-1,-1,-1],"split_conditions":[3E0,1E0,1E0,1E0,1E0,1E0,1E0,2E0,2E0,2E0,2E0,1E0,3E0,3E0,2E0,2.2326155E-2,-1.17149735E-2,-2.8192813E-2,-5.3781617E-2,5.8906764E-2,3.2599162E-2,1.867648E-2,-1.3888073E-2,-4.458935E-2,-6.980297E-2,-5.654298E-2,-6.933866E-2,-1.802494E-3,-2.7478216E-2,-4.0908482E-2,-6.643056E-2],"split_indices":[12,21,21,15,15,1,15,12,12,12,12,15,18,18,18,0,0,0,0,0,0,0,0,0,0,0,0,0,0,0,0],"split_type":[0,0,0,0,0,0,0,0,0,0,0,0,0,0,0,0,0,0,0,0,0,0,0,0,0,0,0,0,0,0,0],"sum_hessian":[1.1652292E4,9.348234E3,2.3040579E3,6.0629536E3,3.2852805E3,1.4936783E3,8.1037946E2,4.956003E3,1.1069506E3,2.6489666E3,6.363139E2,6.7009406E2,8.2358435E2,6.6221295E2,1.4816655E2,2.5016848E3,2.454318E3,5.5615686E2,5.5079364E2,1.327274E3,1.3216926E3,3.0655997E2,3.2975397E2,5.425117E2,1.2758234E2,3.2900635E2,4.9457803E2,2.6802896E2,3.94184E2,3.1392735E1,1.1677381E2],"tree_param":{"num_deleted":"0","num_feature":"22","num_nodes":"31","size_leaf_vector":"1"}},{"base_weights":[6.2466273E-3,2.2495128E-1,-8.902613E-1,-4.081526E-2,7.172924E-1,-1.119112E0,-4.6878102E-1,1.1831551E-1,-7.6332974E-1,8.750332E-1,7.527093E-2,-1.0462223E0,-1.4337853E0,-3.0779755E-1,-1.201835E0,2.1718126E-2,-1.0268348E-2,-2.7145121E-2,-4.9729425E-2,5.6707997E-2,3.0991405E-2,1.916664E-2,-1.0350808E-2,-6.0363878E-2,-4.363982E-2,-2.7019475E-2,-7.2026744E-2,-2.7210072E-2,-2.6262172E-3,-4.4447683E-2,-6.349481E-2],"categories":[],"categories_nodes":[],"categories_segments":[],"categories_sizes":[],"default_left":[0,0,0,0,0,0,0,0,0,0,0,0,0,0,0,0,0,0,0,0,0,0,0,0,0,0,0,0,0,0,0],"id":10,"left_children":[1,3,5,7,9,11,13,15,17,19,21,23,25,27,29,-1,-1,-1,-1,-1,-1,-1,-1,-1,-1,-1,-1,-1,-1,-1,-1],"loss_changes":[2.2678452E3,1.216672E3,2.1826733E2,6.9447577E2,3.300504E2,3.220215E1,9.4030136E1,5.0649582E2,5.503473E1,1.7233728E2,5.608395E1,3.237207E1,8.7164307E-1,3.96343E1,1.9311218E0,0E0,0E0,0E0,0E0,0E0,0E0,0E0,0E0,0E0,0E0,0E0,0E0,0E0,0E0,0E0,0E0],"parents":[2147483647,0,0,1,1,2,2,3,3,4,4,5,5,6,6,7,7,8,8,9,9,10,10,11,11,12,12,13,13,14,14],"right_children":[2,4,6,8,10,12,14,16,18,20,22,24,26,28,30,-1,-1,-1,-1,-1,-1,-1,-1,-1,-1,-1,-1,-1,-1,-1,-1],"split_conditions":[3E0,1E0,1E0,1E0,1E0,1E0,1E0,2E0,2E0,2E0,2E0,5.1E1,3.191E3,5.1E1,3.1E1,2.1718126E-2,-1.0268348E-2,-2.7145121E-2,-4.9729425E-2,5.6707997E-2,3.0991405E-2,1.916664E-2,-1.0350808E-2,-6.0363878E-2,-4.363982E-2,-2.7019475E-2,-7.2026744E-2,-2.7210072E-2,-2.6262172E-3,-4.4447683E-2,-6.349481E-2],"split_indices":[12,21,21,15,15,15,15,12,12,12,12,9,3,9,14,0,0,0,0,0,0,0,0,0,0,0,0,0,0,0,0],"split_type":[0,0,0,0,0,0,0,0,0,0,0,0,0,0,0,0,0,0,0,0,0,0,0,0,0,0,0,0,0,0,0],"sum_hessian":[1.1564459E4,9.297151E3,2.2673071E3,6.038485E3,3.2586667E3,1.4683716E3,7.9893567E2,4.949266E3,1.0892188E3,2.6156536E3,6.430131E2,1.1957234E3,2.7264813E2,6.562408E2,1.426949E2,2.503996E3,2.44527E3,5.5938293E2,5.298358E2,1.2961461E3,1.3195076E3,3.0729834E2,3.357148E2,6.1688245E2,5.78841E2,2.6522264E0,2.699959E2,3.4012518E2,3.1611557E2,2.8006828E1,1.1468807E2],"tree_param":{"num_deleted":"0","num_feature":"22","num_nodes":"31","size_leaf_vector":"1"}},{"base_weights":[-1.643796E-3,2.0174028E-1,-8.403129E-1,-5.2826058E-2,6.808342E-1,-1.0722461E0,-4.2113408E-1,3.273254E-1,-3.6245766E-1,8.334654E-1,5.5760495E-2,-8.275808E-1,-1.2704047E0,-1.2538253E-2,-7.470701E-1,2.477885E-2,-2.1078523E-2,-1.0915566E-2,-5.1857907E-2,5.8757104E-2,2.8856192E-2,2.3168337E-2,-1.4183712E-2,-3.5481904E-2,-6.6806704E-2,-6.940649E-2,-5.6805696E-2,6.6857687E-3,-3.7620954E-2,-3.0949196E-2,-6.682668E-2],"categories":[],"categories_nodes":[],"categories_segments":[],"categories_sizes":[],"default_left":[0,0,0,0,0,0,0,0,0,0,0,0,0,0,0,0,0,0,0,0,0,0,0,0,0,0,0,0,0,0,0],"id":11,"left_children":[1,3,5,7,9,11,13,15,17,19,21,23,25,27,29,-1,-1,-1,-1,-1,-1,-1,-1,-1,-1,-1,-1,-1,-1,-1,-1],"loss_changes":[1.9614349E3,1.1287631E3,2.177489E2,7.115969E2,3.0633167E2,6.896948E1,1.06679825E2,3.4215463E2,3.237999E2,2.2538074E2,8.7478165E1,3.798819E1,1.1008667E1,3.8677307E1,3.2817657E1,0E0,0E0,0E0,0E0,0E0,0E0,0E0,0E0,0E0,0E0,0E0,0E0,0E0,0E0,0E0,0E0],"parents":[2147483647,0,0,1,1,2,2,3,3,4,4,5,5,6,6,7,7,8,8,9,9,10,10,11,11,12,12,13,13,14,14],"right_children":[2,4,6,8,10,12,14,16,18,20,22,24,26,28,30,-1,-1,-1,-1,-1,-1,-1,-1,-1,-1,-1,-1,-1,-1,-1,-1],"split_conditions":[3E0,1E0,1E0,3E0,1E0,3E0,3E0,1E0,1E0,3E0,3E0,1E0,5.3E1,1E0,1E0,2.477885E-2,-2.1078523E-2,-1.0915566E-2,-5.1857907E-2,5.8757104E-2,2.8856192E-2,2.3168337E-2,-1.4183712E-2,-3.5481904E-2,-6.6806704E-2,-6.940649E-2,-5.6805696E-2,6.6857687E-3,-3.7620954E-2,-3.0949196E-2,-6.682668E-2],"split_indices":[12,21,21,4,15,4,4,15,15,4,4,15,9,15,15,0,0,0,0,0,0,0,0,0,0,0,0,0,0,0,0],"split_type":[0,0,0,0,0,0,0,0,0,0,0,0,0,0,0,0,0,0,0,0,0,0,0,0,0,0,0,0,0,0,0],"sum_hessian":[1.1497172E4,9.253808E3,2.243364E3,6.0434907E3,3.2103167E3,1.4432502E3,8.001137E2,2.7127922E3,3.3306987E3,2.5799966E3,6.3031995E2,6.481541E2,7.950961E2,3.5549762E2,4.446161E2,2.215404E3,4.973882E2,2.7454673E3,5.852315E2,1.1043835E3,1.475613E3,2.8623407E2,3.440859E2,5.2807855E2,1.20075584E2,4.1870483E2,3.7639133E2,2.9750793E2,5.798968E1,3.6693405E2,7.768203E1],"tree_param":{"num_deleted":"0","num_feature":"22","num_nodes":"31","size_leaf_vector":"1"}},{"base_weights":[-9.3070953E-4,2.0060249E-1,-8.2850933E-1,-4.385065E-2,6.5932614E-1,-1.0508776E0,-4.3447742E-1,3.3030662E-1,-3.5268763E-1,8.1060296E-1,4.1050646E-2,-8.014031E-1,-1.2520463E0,-7.730636E-2,-7.258178E-1,2.4417259E-2,-1.8440891E-2,-2.1639166E-3,-3.3519063E-2,5.6672502E-2,2.8516982E-2,2.0011136E-2,-1.2732001E-2,-2.522899E-2,-4.8543435E-2,-6.8227254E-2,-5.6335885E-2,4.5890445E-3,-4.3045193E-2,-2.974451E-2,-6.5359786E-2],"categories":[],"categories_nodes":[],"categories_segments":[],"categories_sizes":[],"default_left":[0,0,0,0,0,0,0,0,0,0,0,0,0,0,0,0,0,0,0,0,0,0,0,0,0,0,0,0,0,0,0],"id":12,"left_children":[1,3,5,7,9,11,13,15,17,19,21,23,25,27,29,-1,-1,-1,-1,-1,-1,-1,-1,-1,-1,-1,-1,-1,-1,-1,-1],"loss_changes":[1.9133344E3,1.0345244E3,1.9638794E2,6.956526E2,2.999353E2,7.1034424E1,8.445595E1,3.009596E2,3.241455E2,1.9922058E2,6.717078E1,3.1881409E1,9.641357E0,4.8569756E1,3.3261154E1,0E0,0E0,0E0,0E0,0E0,0E0,0E0,0E0,0E0,0E0,0E0,0E0,0E0,0E0,0E0,0E0],"parents":[2147483647,0,0,1,1,2,2,3,3,4,4,5,5,6,6,7,7,8,8,9,9,10,10,11,11,12,12,13,13,14,14],"right_children":[2,4,6,8,10,12,14,16,18,20,22,24,26,28,30,-1,-1,-1,-1,-1,-1,-1,-1,-1,-1,-1,-1,-1,-1,-1,-1],"split_conditions":[3E0,1E0,1E0,3E0,1E0,3E0,3E0,1E0,2E0,3E0,3E0,1E1,5.2E1,1E0,1E0,2.4417259E-2,-1.8440891E-2,-2.1639166E-3,-3.3519063E-2,5.6672502E-2,2.8516982E-2,2.0011136E-2,-1.2732001E-2,-2.522899E-2,-4.8543435E-2,-6.8227254E-2,-5.6335885E-2,4.5890445E-3,-4.3045193E-2,-2.974451E-2,-6.5359786E-2],"split_indices":[12,21,21,4,15,4,4,15,12,4,4,2,9,15,15,0,0,0,0,0,0,0,0,0,0,0,0,0,0,0,0],"split_type":[0,0,0,0,0,0,0,0,0,0,0,0,0,0,0,0,0,0,0,0,0,0,0,0,0,0,0,0,0,0,0],"sum_hessian":[1.1469895E4,9.22433E3,2.245565E3,6.0181636E3,3.206166E3,1.4344049E3,8.1116016E2,2.7212673E3,3.2968962E3,2.5756553E3,6.305108E2,6.4254816E2,7.9185675E2,3.6497794E2,4.4618222E2,2.2197825E3,5.01485E2,1.6708005E3,1.6260957E3,1.0973734E3,1.4782817E3,2.8453537E2,3.4597543E2,2.3496983E2,4.0757834E2,4.1207657E2,3.7978015E2,3.00926E2,6.4051926E1,3.658216E2,8.036063E1],"tree_param":{"num_deleted":"0","num_feature":"22","num_nodes":"31","size_leaf_vector":"1"}},{"base_weights":[-3.3448772E-3,4.6119657E-1,-3.1682712E-1,2.2707486E-1,9.159154E-1,-5.57251E-1,1.1825341E-1,3.9051467E-1,-5.161179E-1,1.050921E0,3.6492506E-1,-3.4727666E-1,-1.0038571E0,3.7269914E-1,-3.903395E-1,2.3066109E-2,-3.0616736E-2,-1.1235764E-2,-3.4821067E-2,5.500285E-2,7.9027815E-3,2.2408025E-2,-4.2417195E-2,-1.1100477E-2,-4.6912145E-2,-3.940795E-2,-5.62084E-2,2.579913E-2,-1.0233792E-2,-1.2823324E-2,-5.2438345E-2],"categories":[],"categories_nodes":[],"categories_segments":[],"categories_sizes":[],"default_left":[0,0,0,0,0,0,0,0,0,0,0,0,0,0,0,0,0,0,0,0,0,0,0,0,0,0,0,0,0,0,0],"id":13,"left_children":[1,3,5,7,9,11,13,15,17,19,21,23,25,27,29,-1,-1,-1,-1,-1,-1,-1,-1,-1,-1,-1,-1,-1,-1,-1,-1],"loss_changes":[1.6554421E3,4.8741235E2,7.100606E2,3.676289E2,1.1539368E2,4.096266E2,3.1287656E2,1.7639774E2,2.8516891E1,5.4647827E1,3.1467987E1,2.2004712E2,3.538257E1,1.3340283E2,7.080626E1,0E0,0E0,0E0,0E0,0E0,0E0,0E0,0E0,0E0,0E0,0E0,0E0,0E0,0E0,0E0,0E0],"parents":[2147483647,0,0,1,1,2,2,3,3,4,4,5,5,6,6,7,7,8,8,9,9,10,10,11,11,12,12,13,13,14,14],"right_children":[2,4,6,8,10,12,14,16,18,20,22,24,26,28,30,-1,-1,-1,-1,-1,-1,-1,-1,-1,-1,-1,-1,-1,-1,-1,-1],"split_conditions":[2E0,1E0,1E0,1E0,1E0,3E0,3E0,3E0,3E0,5E0,3E0,1E0,1E1,1E0,1E0,2.3066109E-2,-3.0616736E-2,-1.1235764E-2,-3.4821067E-2,5.500285E-2,7.9027815E-3,2.2408025E-2,-4.2417195E-2,-1.1100477E-2,-4.6912145E-2,-3.940795E-2,-5.62084E-2,2.579913E-2,-1.0233792E-2,-1.2823324E-2,-5.2438345E-2],"split_indices":[12,21,21,15,15,12,12,7,18,10,7,15,2,15,15,0,0,0,0,0,0,0,0,0,0,0,0,0,0,0,0],"split_type":[0,0,0,0,0,0,0,0,0,0,0,0,0,0,0,0,0,0,0,0,0,0,0,0,0,0,0,0,0,0,0],"sum_hessian":[1.1365801E4,4.5793325E3,6.7864688E3,3.023908E3,1.5554243E3,4.3708643E3,2.4156045E3,2.479173E3,5.4473474E2,1.2485847E3,3.068397E2,2.9742717E3,1.3965928E3,1.610266E3,8.0533844E2,2.3161765E3,1.6299672E2,2.0907635E2,3.356584E2,1.1832368E3,6.534787E1,2.8773074E2,1.9108944E1,2.4552153E3,5.1905634E2,5.0276544E2,8.938274E2,1.2901934E3,3.2007263E2,6.704172E2,1.3492128E2],"tree_param":{"num_deleted":"0","num_feature":"22","num_nodes":"31","size_leaf_vector":"1"}},{"base_weights":[6.367036E-4,1.8107489E-1,-7.563531E-1,-4.6954576E-2,6.1175144E-1,-9.814748E-1,-3.6022282E-1,2.94998E-1,-3.3032516E-1,7.5425315E-1,4.139905E-2,-7.2341E-1,-1.196452E0,-9.394508E-3,-6.5399295E-1,2.161371E-2,-1.6154813E-2,-9.947759E-3,-4.7869515E-2,5.4056432E-2,2.568697E-2,2.0163335E-2,-1.21638635E-2,-3.0561525E-2,-6.257127E-2,-6.53593E-2,-5.379187E-2,6.5589175E-3,-3.555503E-2,-2.6520384E-2,-6.1928548E-2],"categories":[],"categories_nodes":[],"categories_segments":[],"categories_sizes":[],"default_left":[0,0,0,0,0,0,0,0,0,0,0,0,0,0,0,0,0,0,0,0,0,0,0,0,0,0,0,0,0,0,0],"id":14,"left_children":[1,3,5,7,9,11,13,15,17,19,21,23,25,27,29,-1,-1,-1,-1,-1,-1,-1,-1,-1,-1,-1,-1,-1,-1,-1,-1],"loss_changes":[1.5511422E3,9.0061914E2,1.9457666E2,5.81173E2,2.579912E2,7.642651E1,8.1791565E1,2.307595E2,2.6998416E2,1.9913123E2,6.5582565E1,3.688791E1,8.724609E0,3.5872463E1,3.0549088E1,0E0,0E0,0E0,0E0,0E0,0E0,0E0,0E0,0E0,0E0,0E0,0E0,0E0,0E0,0E0,0E0],"parents":[2147483647,0,0,1,1,2,2,3,3,4,4,5,5,6,6,7,7,8,8,9,9,10,10,11,11,12,12,13,13,14,14],"right_children":[2,4,6,8,10,12,14,16,18,20,22,24,26,28,30,-1,-1,-1,-1,-1,-1,-1,-1,-1,-1,-1,-1,-1,-1,-1,-1],"split_conditions":[3E0,1E0,1E0,3E0,1E0,3E0,3E0,1E0,1E0,3E0,3E0,1E0,5.2E1,1E0,1E0,2.161371E-2,-1.6154813E-2,-9.947759E-3,-4.7869515E-2,5.4056432E-2,2.568697E-2,2.0163335E-2,-1.21638635E-2,-3.0561525E-2,-6.257127E-2,-6.53593E-2,-5.379187E-2,6.5589175E-3,-3.555503E-2,-2.6520384E-2,-6.1928548E-2],"split_indices":[12,21,21,4,15,4,4,15,15,4,4,15,9,15,15,0,0,0,0,0,0,0,0,0,0,0,0,0,0,0,0],"split_type":[0,0,0,0,0,0,0,0,0,0,0,0,0,0,0,0,0,0,0,0,0,0,0,0,0,0,0,0,0,0,0],"sum_hessian":[1.13542E4,9.169334E3,2.1848672E3,5.9956953E3,3.1736382E3,1.3921992E3,7.9266785E2,2.7169824E3,3.278713E3,2.5389602E3,6.34678E2,6.346782E2,7.5752106E2,3.617218E2,4.3094604E2,2.2234614E3,4.935211E2,2.7118901E3,5.668229E2,1.0747723E3,1.4641879E3,2.7926825E2,3.554097E2,5.252449E2,1.0943334E2,3.89808E2,3.6771304E2,3.020293E2,5.9692497E1,3.5731387E2,7.363218E1],"tree_param":{"num_deleted":"0","num_feature":"22","num_nodes":"31","size_leaf_vector":"1"}},{"base_weights":[2.7160786E-4,4.3091026E-1,-2.91392E-1,5.682074E-1,-1.7145468E-1,-5.094413E-1,1.0136705E-1,3.7282273E-1,9.683172E-1,-4.4304022E-1,3.0567122E-1,-3.1423485E-1,-9.348354E-1,3.2403666E-1,-3.4563172E-1,3.5122383E-2,5.345506E-3,6.2256794E-2,3.859807E-2,-4.7227656E-3,-3.700578E-2,1.9594502E-2,-4.2716067E-2,1.1503402E-3,-2.976392E-2,-3.4461852E-2,-5.7168093E-2,3.476883E-2,2.5569387E-3,-8.69827E-4,-3.0854136E-2],"categories":[],"categories_nodes":[],"categories_segments":[],"categories_sizes":[],"default_left":[0,0,0,0,0,0,0,0,0,0,0,0,0,0,0,0,0,0,0,0,0,0,0,0,0,0,0,0,0,0,0],"id":15,"left_children":[1,3,5,7,9,11,13,15,17,19,21,23,25,27,29,-1,-1,-1,-1,-1,-1,-1,-1,-1,-1,-1,-1,-1,-1,-1,-1],"loss_changes":[1.4155404E3,3.7646417E2,5.754942E2,2.8938245E2,1.0969562E2,3.5849988E2,2.3894212E2,2.1834253E2,6.510376E1,5.5768845E1,3.1067425E1,2.8086337E2,6.878894E1,1.6232487E2,7.112092E1,0E0,0E0,0E0,0E0,0E0,0E0,0E0,0E0,0E0,0E0,0E0,0E0,0E0,0E0,0E0,0E0],"parents":[2147483647,0,0,1,1,2,2,3,3,4,4,5,5,6,6,7,7,8,8,9,9,10,10,11,11,12,12,13,13,14,14],"right_children":[2,4,6,8,10,12,14,16,18,20,22,24,26,28,30,-1,-1,-1,-1,-1,-1,-1,-1,-1,-1,-1,-1,-1,-1,-1,-1],"split_conditions":[2E0,1E0,1E0,1E0,1E0,3E0,3E0,3E0,3E0,3E0,3E0,3E0,3E0,3E0,3E0,3.5122383E-2,5.345506E-3,6.2256794E-2,3.859807E-2,-4.7227656E-3,-3.700578E-2,1.9594502E-2,-4.2716067E-2,1.1503402E-3,-2.976392E-2,-3.4461852E-2,-5.7168093E-2,3.476883E-2,2.5569387E-3,-8.69827E-4,-3.0854136E-2],"split_indices":[12,15,21,21,21,12,12,4,4,4,7,4,4,4,4,0,0,0,0,0,0,0,0,0,0,0,0,0,0,0,0],"split_type":[0,0,0,0,0,0,0,0,0,0,0,0,0,0,0,0,0,0,0,0,0,0,0,0,0,0,0,0,0,0,0],"sum_hessian":[1.1268081E4,4.549826E3,6.7182544E3,3.7053271E3,8.444991E2,4.3197485E3,2.3985059E3,2.490889E3,1.2144381E3,5.382133E2,3.0628577E2,2.9621873E3,1.3575612E3,1.601169E3,7.973371E2,1.1114702E3,1.3794188E3,5.0174567E2,7.126925E2,2.4824422E2,2.8996912E2,2.8571182E2,2.057395E1,1.346889E3,1.6152981E3,6.2534595E2,7.322153E2,6.775962E2,9.2357275E2,3.6140036E2,4.359367E2],"tree_param":{"num_deleted":"0","num_feature":"22","num_nodes":"31","size_leaf_vector":"1"}},{"base_weights":[1.0388008E-2,1.7431745E-1,-7.0100635E-1,-2.9873451E-2,5.644282E-1,-9.108584E-1,-3.4049878E-1,2.798007E-1,-2.8486884E-1,7.0398426E-1,1.7255962E-2,-6.741908E-1,-1.1139457E0,-2.689406E-2,-5.949925E-1,2.0474568E-2,-1.6194604E-2,-7.91115E-3,-4.5863435E-2,5.0286997E-2,2.4218543E-2,1.9509416E-2,-1.4144619E-2,-2.7919644E-2,-6.1257005E-2,-4.225606E-2,-5.9269935E-2,1.7551411E-2,-1.4662427E-2,-2.388917E-2,-5.855858E-2],"categories":[],"categories_nodes":[],"categories_segments":[],"categories_sizes":[],"default_left":[0,0,0,0,0,0,0,0,0,0,0,0,0,0,0,0,0,0,0,0,0,0,0,0,0,0,0,0,0,0,0],"id":16,"left_children":[1,3,5,7,9,11,13,15,17,19,21,23,25,27,29,-1,-1,-1,-1,-1,-1,-1,-1,-1,-1,-1,-1,-1,-1,-1,-1],"loss_changes":[1.3070691E3,7.256127E2,1.5848889E2,4.723142E2,2.3897778E2,6.298889E1,6.1748825E1,2.1161015E2,2.6256656E2,1.6476831E2,7.1418015E1,3.8550354E1,1.2677795E1,3.510613E1,2.8288132E1,0E0,0E0,0E0,0E0,0E0,0E0,0E0,0E0,0E0,0E0,0E0,0E0,0E0,0E0,0E0,0E0],"parents":[2147483647,0,0,1,1,2,2,3,3,4,4,5,5,6,6,7,7,8,8,9,9,10,10,11,11,12,12,13,13,14,14],"right_children":[2,4,6,8,10,12,14,16,18,20,22,24,26,28,30,-1,-1,-1,-1,-1,-1,-1,-1,-1,-1,-1,-1,-1,-1,-1,-1],"split_conditions":[3E0,1E0,1E0,3E0,1E0,3E0,3E0,1E0,1E0,3E0,3E0,1E0,2E0,3E0,1E0,2.0474568E-2,-1.6194604E-2,-7.91115E-3,-4.5863435E-2,5.0286997E-2,2.4218543E-2,1.9509416E-2,-1.4144619E-2,-2.7919644E-2,-6.1257005E-2,-4.225606E-2,-5.9269935E-2,1.7551411E-2,-1.4662427E-2,-2.388917E-2,-5.855858E-2],"split_indices":[12,21,21,4,15,4,4,15,15,4,4,15,18,18,15,0,0,0,0,0,0,0,0,0,0,0,0,0,0,0,0],"split_type":[0,0,0,0,0,0,0,0,0,0,0,0,0,0,0,0,0,0,0,0,0,0,0,0,0,0,0,0,0,0,0],"sum_hessian":[1.1206031E4,9.107995E3,2.0980366E3,5.979265E3,3.1287297E3,1.3251423E3,7.7289417E2,2.7000928E3,3.279172E3,2.492685E3,6.360448E2,6.1397125E2,7.111711E2,3.4673236E2,4.2616183E2,2.2228765E3,4.7721637E2,2.733088E3,5.460842E2,1.0484722E3,1.4442128E3,2.8349908E2,3.5254575E2,5.0900305E2,1.0496819E2,1.5202843E2,5.591427E2,1.4321336E2,2.03519E2,3.556442E2,7.0517624E1],"tree_param":{"num_deleted":"0","num_feature":"22","num_nodes":"31","size_leaf_vector":"1"}},{"base_weights":[9.0067927E-4,-1.9125067E-1,3.5985655E-1,-7.482237E-2,-7.4543273E-1,4.8291683E-1,-1.4290445E-1,2.101488E-1,-3.1065926E-1,-5.068079E-1,-9.5698315E-1,7.7251506E-1,2.6961663E-1,1.4609261E-1,-3.798984E-1,1.609443E-2,-1.963685E-2,-1.2725477E-2,-5.7305872E-2,-2.2074128E-2,-6.9303475E-2,-4.099751E-2,-5.3460687E-2,4.158091E-2,-1.1180753E-2,1.8835027E-2,-1.6712585E-2,1.0951266E-2,-4.4730756E-2,-1.6155224E-2,-5.723826E-2],"categories":[],"categories_nodes":[],"categories_segments":[],"categories_sizes":[],"default_left":[0,0,0,0,0,0,0,0,0,0,0,0,0,0,0,0,0,0,0,0,0,0,0,0,0,0,0,0,0,0,0],"id":17,"left_children":[1,3,5,7,9,11,13,15,17,19,21,23,25,27,29,-1,-1,-1,-1,-1,-1,-1,-1,-1,-1,-1,-1,-1,-1,-1,-1],"loss_changes":[7.6496716E2,4.6603925E2,2.3931519E2,4.0133752E2,6.282068E1,1.9170099E2,5.2187492E1,1.8230577E2,1.529848E2,3.3359116E1,9.329102E0,7.773389E1,1.15913864E2,2.6281334E1,1.7808899E1,0E0,0E0,0E0,0E0,0E0,0E0,0E0,0E0,0E0,0E0,0E0,0E0,0E0,0E0,0E0,0E0],"parents":[2147483647,0,0,1,1,2,2,3,3,4,4,5,5,6,6,7,7,8,8,9,9,10,10,11,11,12,12,13,13,14,14],"right_children":[2,4,6,8,10,12,14,16,18,20,22,24,26,28,30,-1,-1,-1,-1,-1,-1,-1,-1,-1,-1,-1,-1,-1,-1,-1,-1],"split_conditions":[1E0,1E0,1E0,3E0,3E0,3E0,3E0,4E0,3E0,3E0,1E0,5E0,4E0,3E0,3E0,1.609443E-2,-1.963685E-2,-1.2725477E-2,-5.7305872E-2,-2.2074128E-2,-6.9303475E-2,-4.099751E-2,-5.3460687E-2,4.158091E-2,-1.1180753E-2,1.8835027E-2,-1.6712585E-2,1.0951266E-2,-4.4730756E-2,-1.6155224E-2,-5.723826E-2],"split_indices":[21,15,15,4,4,4,4,11,7,7,1,10,11,7,7,0,0,0,0,0,0,0,0,0,0,0,0,0,0,0,0],"split_type":[0,0,0,0,0,0,0,0,0,0,0,0,0,0,0,0,0,0,0,0,0,0,0,0,0,0,0,0,0,0,0],"sum_hessian":[1.1088686E4,7.222762E3,3.865923E3,5.9697173E3,1.2530449E3,3.105767E3,7.6015594E2,2.703309E3,3.266408E3,5.904379E2,6.62607E2,1.3161733E3,1.7895938E3,3.4267365E2,4.174823E2,2.2810095E3,4.222997E2,3.0619258E3,2.044821E2,5.510029E2,3.9435043E1,3.020776E2,3.605294E2,1.242611E3,7.356243E1,1.520364E3,2.6922974E2,3.2096967E2,2.1703985E1,3.8994968E2,2.7532635E1],"tree_param":{"num_deleted":"0","num_feature":"22","num_nodes":"31","size_leaf_vector":"1"}},{"base_weights":[2.234828E-3,4.0819284E-1,-2.7651957E-1,2.3315752E-1,7.628664E-1,-9.006911E-2,-6.7503595E-1,5.198878E-1,-1.8742513E-3,8.941043E-1,2.5317356E-1,2.161403E-1,-3.3829555E-1,-8.7837017E-1,-3.4914938E-1,2.9135197E-2,-3.086183E-2,6.219682E-3,-3.1928524E-2,4.7421593E-2,-3.6038947E-3,2.7127778E-2,8.5393956E-4,8.620973E-4,3.0937016E-2,-2.7112598E-2,6.124131E-4,-3.2584663E-2,-5.3926952E-2,-2.5543582E-3,-2.95696E-2],"categories":[],"categories_nodes":[],"categories_segments":[],"categories_sizes":[],"default_left":[0,0,0,0,0,0,0,0,0,0,0,0,0,0,0,0,0,0,0,0,0,0,0,0,0,0,0,0,0,0,0],"id":18,"left_children":[1,3,5,7,9,11,13,15,17,19,21,23,25,27,29,-1,-1,-1,-1,-1,-1,-1,-1,-1,-1,-1,-1,-1,-1,-1,-1],"loss_changes":[1.2579414E3,2.8076984E2,4.896509E2,2.0430127E2,9.977356E1,3.4144205E2,1.3888342E2,9.790427E1,1.3409485E2,6.2450867E1,2.1000072E1,1.610505E2,1.7737354E2,5.7957275E1,5.8361916E1,0E0,0E0,0E0,0E0,0E0,0E0,0E0,0E0,0E0,0E0,0E0,0E0,0E0,0E0,0E0,0E0],"parents":[2147483647,0,0,1,1,2,2,3,3,4,4,5,5,6,6,7,7,8,8,9,9,10,10,11,11,12,12,13,13,14,14],"right_children":[2,4,6,8,10,12,14,16,18,20,22,24,26,28,30,-1,-1,-1,-1,-1,-1,-1,-1,-1,-1,-1,-1,-1,-1,-1,-1],"split_conditions":[2E0,1E0,3E0,3E0,1E0,3E0,1E0,5E0,1E0,5E0,3E0,1E0,1E0,3E0,3E0,2.9135197E-2,-3.086183E-2,6.219682E-3,-3.1928524E-2,4.7421593E-2,-3.6038947E-3,2.7127778E-2,8.5393956E-4,8.620973E-4,3.0937016E-2,-2.7112598E-2,6.124131E-4,-3.2584663E-2,-5.3926952E-2,-2.5543582E-3,-2.95696E-2],"split_indices":[12,21,12,4,15,4,21,10,15,10,4,21,21,4,4,0,0,0,0,0,0,0,0,0,0,0,0,0,0,0,0],"split_type":[0,0,0,0,0,0,0,0,0,0,0,0,0,0,0,0,0,0,0,0,0,0,0,0,0,0,0,0,0,0,0],"sum_hessian":[1.1114235E4,4.5245454E3,6.58969E3,3.0305786E3,1.4939668E3,4.4901484E3,2.0995413E3,1.3646018E3,1.6659768E3,1.1874601E3,3.065066E2,2.010342E3,2.4798064E3,1.2918235E3,8.0771765E2,1.2936278E3,7.0974014E1,1.3909349E3,2.7504187E2,1.1242623E3,6.3197838E1,1.3712907E2,1.6937753E2,1.3462772E3,6.640648E2,1.5673378E3,9.124687E2,6.077949E2,6.840286E2,3.6267853E2,4.4503912E2],"tree_param":{"num_deleted":"0","num_feature":"22","num_nodes":"31","size_leaf_vector":"1"}},{"base_weights":[4.8907276E-4,3.9784056E-1,-2.7088225E-1,5.1868874E-1,-1.4429674E-1,-9.077335E-2,-6.555437E-1,3.533827E-1,8.71951E-1,-3.9556837E-1,2.8576702E-1,-2.797091E-1,2.5812903E-1,-8.588419E-1,-3.2625753E-1,5.3994725E-3,3.051334E-2,5.636568E-2,3.4893733E-2,-4.98268E-3,-3.3402573E-2,2.073525E-2,-2.1002665E-2,4.0495503E-5,-2.5936712E-2,2.9052198E-2,1.2773419E-3,-3.170858E-2,-5.276152E-2,-1.0239272E-2,-4.6538364E-2],"categories":[],"categories_nodes":[],"categories_segments":[],"categories_sizes":[],"default_left":[0,0,0,0,0,0,0,0,0,0,0,0,0,0,0,0,0,0,0,0,0,0,0,0,0,0,0,0,0,0,0],"id":19,"left_children":[1,3,5,7,9,11,13,15,17,19,21,23,25,27,29,-1,-1,-1,-1,-1,-1,-1,-1,-1,-1,-1,-1,-1,-1,-1,-1],"loss_changes":[1.1868802E3,2.9271582E2,4.5305798E2,2.129978E2,8.818048E1,2.9379315E2,1.3933533E2,1.5689862E2,5.0943176E1,4.1445168E1,2.7579508E1,1.9384206E2,1.1757998E2,5.619873E1,5.8386856E1,0E0,0E0,0E0,0E0,0E0,0E0,0E0,0E0,0E0,0E0,0E0,0E0,0E0,0E0,0E0,0E0],"parents":[2147483647,0,0,1,1,2,2,3,3,4,4,5,5,6,6,7,7,8,8,9,9,10,10,11,11,12,12,13,13,14,14],"right_children":[2,4,6,8,10,12,14,16,18,20,22,24,26,28,30,-1,-1,-1,-1,-1,-1,-1,-1,-1,-1,-1,-1,-1,-1,-1,-1],"split_conditions":[2E0,1E0,3E0,1E0,1E0,1E0,1E0,5.2E1,3E0,3E0,4E0,3E0,3E0,3E0,1E0,5.3994725E-3,3.051334E-2,5.636568E-2,3.4893733E-2,-4.98268E-3,-3.3402573E-2,2.073525E-2,-2.1002665E-2,4.0495503E-5,-2.5936712E-2,2.9052198E-2,1.2773419E-3,-3.170858E-2,-5.276152E-2,-1.0239272E-2,-4.6538364E-2],"split_indices":[12,15,12,21,21,21,21,9,4,4,11,4,4,4,15,0,0,0,0,0,0,0,0,0,0,0,0,0,0,0,0],"split_type":[0,0,0,0,0,0,0,0,0,0,0,0,0,0,0,0,0,0,0,0,0,0,0,0,0,0,0,0,0,0,0],"sum_hessian":[1.10049795E4,4.465691E3,6.539288E3,3.6517258E3,8.139651E2,4.454709E3,2.0845793E3,2.4890137E3,1.1627119E3,5.138312E2,3.001339E2,2.8899543E3,1.5647543E3,1.287859E3,7.967204E2,1.2737045E3,1.2153093E3,4.690944E2,6.9361755E2,2.4697919E2,2.6685202E2,2.5412354E2,4.6010384E1,1.3300312E3,1.5599232E3,6.545228E2,9.102315E2,6.0265027E2,6.8520874E2,6.64527E2,1.3219339E2],"tree_param":{"num_deleted":"0","num_feature":"22","num_nodes":"31","size_leaf_vector":"1"}},{"base_weights":[5.226565E-4,3.7365475E-1,-2.549817E-1,2.006547E-1,7.2995794E-1,-8.3734415E-2,-6.268757E-1,4.9315727E-1,-3.769796E-2,7.9834044E-1,-1.3647407E-1,-2.6607406E-1,2.5067285E-1,-8.194951E-1,-3.1647465E-1,2.8072653E-2,-2.2446211E-2,1.4682925E-2,-1.2988663E-2,4.5848694E-2,1.7783698E-2,9.548183E-3,-1.7867116E-2,-7.7807526E-3,-4.096844E-2,1.8181568E-2,-1.9168554E-2,-2.9315192E-2,-5.1410146E-2,-1.1597684E-3,-2.8035304E-2],"categories":[],"categories_nodes":[],"categories_segments":[],"categories_sizes":[],"default_left":[0,0,0,0,0,0,0,0,0,0,0,0,0,0,0,0,0,0,0,0,0,0,0,0,0,0,0,0,0,0,0],"id":20,"left_children":[1,3,5,7,9,11,13,15,17,19,21,23,25,27,29,-1,-1,-1,-1,-1,-1,-1,-1,-1,-1,-1,-1,-1,-1,-1,-1],"loss_changes":[1.0430613E3,2.7395642E2,4.13523E2,2.0880992E2,8.61994E1,2.7126556E2,1.221496E2,8.677112E1,1.2157075E2,7.0405945E1,7.817008E0,1.7581055E2,1.12577896E2,6.0852966E1,5.6258568E1,0E0,0E0,0E0,0E0,0E0,0E0,0E0,0E0,0E0,0E0,0E0,0E0,0E0,0E0,0E0,0E0],"parents":[2147483647,0,0,1,1,2,2,3,3,4,4,5,5,6,6,7,7,8,8,9,9,10,10,11,11,12,12,13,13,14,14],"right_children":[2,4,6,8,10,12,14,16,18,20,22,24,26,28,30,-1,-1,-1,-1,-1,-1,-1,-1,-1,-1,-1,-1,-1,-1,-1,-1],"split_conditions":[2E0,1E0,3E0,3E0,3E0,1E0,1E0,3E0,3E0,1E0,3E0,1E0,4E0,3E0,3E0,2.8072653E-2,-2.2446211E-2,1.4682925E-2,-1.2988663E-2,4.5848694E-2,1.7783698E-2,9.548183E-3,-1.7867116E-2,-7.7807526E-3,-4.096844E-2,1.8181568E-2,-1.9168554E-2,-2.9315192E-2,-5.1410146E-2,-1.1597684E-3,-2.8035304E-2],"split_indices":[12,21,12,4,7,21,21,7,18,15,4,15,11,4,4,0,0,0,0,0,0,0,0,0,0,0,0,0,0,0,0],"split_type":[0,0,0,0,0,0,0,0,0,0,0,0,0,0,0,0,0,0,0,0,0,0,0,0,0,0,0,0,0,0,0],"sum_hessian":[1.0938796E4,4.4458E3,6.4929956E3,2.9937651E3,1.4520345E3,4.446655E3,2.046341E3,1.343713E3,1.6500521E3,1.3458899E3,1.061447E2,2.8777378E3,1.5689171E3,1.2617325E3,7.846084E2,1.2532623E3,9.0450645E1,6.619863E2,9.8806586E2,1.0605845E3,2.8530533E2,4.281168E1,6.333302E1,2.3999053E3,4.7783252E2,1.3320342E3,2.3688297E2,5.9771216E2,6.640204E2,3.5700394E2,4.2760443E2],"tree_param":{"num_deleted":"0","num_feature":"22","num_nodes":"31","size_leaf_vector":"1"}},{"base_weights":[-1.3459388E-3,-2.2788446E-1,2.2808549E-1,1.1215156E-2,-4.254098E-1,4.8410568E-1,2.3749137E-2,1.2096447E-1,-4.9488744E-1,-3.2957783E-1,-9.3968236E-1,7.6808524E-1,2.9665092E-1,8.071075E-2,-1.0417213E0,2.0832235E-2,-4.100423E-3,-3.613503E-2,-4.935668E-3,-4.376084E-3,-2.6314711E-2,-2.7933806E-2,-5.1873397E-2,5.0240245E-2,2.8874287E-2,2.0951059E-2,-1.0321984E-2,9.512688E-3,-2.189481E-2,-3.6466178E-2,-6.2229525E-2],"categories":[],"categories_nodes":[],"categories_segments":[],"categories_sizes":[],"default_left":[0,0,0,0,0,0,0,0,0,0,0,0,0,0,0,0,0,0,0,0,0,0,0,0,0,0,0,0,0,0,0],"id":21,"left_children":[1,3,5,7,9,11,13,15,17,19,21,23,25,27,29,-1,-1,-1,-1,-1,-1,-1,-1,-1,-1,-1,-1,-1,-1,-1,-1],"loss_changes":[5.6558295E2,2.5859946E2,2.8281964E2,1.3769943E2,1.474635E2,1.27513916E2,1.8262611E2,1.222977E2,3.9802353E1,1.2037491E2,1.6947327E1,4.2442078E1,8.917601E1,1.6233331E2,8.770386E0,0E0,0E0,0E0,0E0,0E0,0E0,0E0,0E0,0E0,0E0,0E0,0E0,0E0,0E0,0E0,0E0],"parents":[2147483647,0,0,1,1,2,2,3,3,4,4,5,5,6,6,7,7,8,8,9,9,10,10,11,11,12,12,13,13,14,14],"right_children":[2,4,6,8,10,12,14,16,18,20,22,24,26,28,30,-1,-1,-1,-1,-1,-1,-1,-1,-1,-1,-1,-1,-1,-1,-1,-1],"split_conditions":[5.1E1,1E0,3E0,1E0,4E0,3E0,5E0,3E0,1E0,3E0,2E0,1E0,1E0,1E0,3E0,2.0832235E-2,-4.100423E-3,-3.613503E-2,-4.935668E-3,-4.376084E-3,-2.6314711E-2,-2.7933806E-2,-5.1873397E-2,5.0240245E-2,2.8874287E-2,2.0951059E-2,-1.0321984E-2,9.512688E-3,-2.189481E-2,-3.6466178E-2,-6.2229525E-2],"split_indices":[9,1,4,15,11,18,10,18,21,4,18,1,15,15,18,0,0,0,0,0,0,0,0,0,0,0,0,0,0,0,0],"split_type":[0,0,0,0,0,0,0,0,0,0,0,0,0,0,0,0,0,0,0,0,0,0,0,0,0,0,0,0,0,0,0],"sum_hessian":[1.0879815E4,5.4744253E3,5.4053906E3,2.4770093E3,2.9974158E3,2.3986584E3,3.0067324E3,2.0362134E3,4.4079578E2,2.527981E3,4.69435E2,9.525383E2,1.4461201E3,2.855023E3,1.5170944E2,8.283965E2,1.2078169E3,2.793412E2,1.6145459E2,1.1340262E3,1.3939547E3,9.724571E1,3.721893E2,4.2296063E2,5.295777E2,1.1633239E3,2.8279626E2,2.3576584E3,4.9736444E2,6.153968E1,9.016977E1],"tree_param":{"num_deleted":"0","num_feature":"22","num_nodes":"31","size_leaf_vector":"1"}},{"base_weights":[-2.7730006E-3,3.5733286E-1,-2.5143322E-1,4.1917247E-1,-5.0272375E-1,-9.0016104E-2,-6.0307354E-1,5.190615E-1,-1.2587802E-1,-3.625895E-1,-1.0859908E0,-3.2603018E-2,-1.080601E0,-5.103019E-1,-1.0684869E0,2.8443534E-2,-2.0835025E-2,9.067611E-3,-1.879341E-2,-3.352692E-2,-3.4870622E-3,-2.311139E-3,-5.547238E-2,3.4756057E-3,-2.9723391E-2,-3.2317407E-2,-6.358638E-2,-1.4087393E-2,-3.4772202E-2,-4.10437E-2,-5.6464847E-2],"categories":[],"categories_nodes":[],"categories_segments":[],"categories_sizes":[],"default_left":[0,0,0,0,0,0,0,0,0,0,0,0,0,0,0,0,0,0,0,0,0,0,0,0,0,0,0,0,0,0,0],"id":22,"left_children":[1,3,5,7,9,11,13,15,17,19,21,23,25,27,29,-1,-1,-1,-1,-1,-1,-1,-1,-1,-1,-1,-1,-1,-1,-1,-1],"loss_changes":[9.708338E2,2.3574725E2,3.6397473E2,2.2503369E2,2.3924095E1,2.5002182E2,8.6568665E1,1.6301062E2,4.928326E1,2.1721935E1,1.3421555E0,2.3854626E2,1.9167206E1,7.107007E1,4.1083984E0,0E0,0E0,0E0,0E0,0E0,0E0,0E0,0E0,0E0,0E0,0E0,0E0,0E0,0E0,0E0,0E0],"parents":[2147483647,0,0,1,1,2,2,3,3,4,4,5,5,6,6,7,7,8,8,9,9,10,10,11,11,12,12,13,13,14,14],"right_children":[2,4,6,8,10,12,14,16,18,20,22,24,26,28,30,-1,-1,-1,-1,-1,-1,-1,-1,-1,-1,-1,-1,-1,-1,-1,-1],"split_conditions":[2E0,3E0,3E0,4E0,1E0,5E0,1E0,5E0,1E0,4.9E1,2E1,4E0,9E0,1E0,2E0,2.8443534E-2,-2.0835025E-2,9.067611E-3,-1.879341E-2,-3.352692E-2,-3.4870622E-3,-2.311139E-3,-5.547238E-2,3.4756057E-3,-2.9723391E-2,-3.2317407E-2,-6.358638E-2,-1.4087393E-2,-3.4772202E-2,-4.10437E-2,-5.6464847E-2],"split_indices":[12,7,12,11,15,10,15,10,1,9,0,11,2,1,18,0,0,0,0,0,0,0,0,0,0,0,0,0,0,0,0],"split_type":[0,0,0,0,0,0,0,0,0,0,0,0,0,0,0,0,0,0,0,0,0,0,0,0,0,0,0,0,0,0,0],"sum_hessian":[1.0839972E4,4.427581E3,6.4123906E3,4.131063E3,2.9651825E2,4.395798E3,2.0165928E3,3.491279E3,6.3978375E2,2.403855E2,5.613275E1,4.1559565E3,2.3984125E2,1.6831785E3,3.3341437E2,3.3152078E3,1.7607133E2,2.871544E2,3.526294E2,1.16543144E2,1.2384235E2,1.3039331E0,5.482882E1,3.5175432E3,6.3841345E2,7.4638695E1,1.6520256E2,7.544041E2,9.287743E2,6.859612E1,2.6481824E2],"tree_param":{"num_deleted":"0","num_feature":"22","num_nodes":"31","size_leaf_vector":"1"}},{"base_weights":[7.0286146E-3,3.432207E-1,-2.2461675E-1,1.8490519E-1,6.755145E-1,-4.0475613E-1,9.351196E-2,4.6355194E-1,-8.145542E-6,9.466493E-1,4.8810792E-1,-2.546874E-1,-7.5960046E-1,2.6662585E-1,-2.5406352E-1,3.631213E-2,1.27776405E-2,2.5700398E-3,-4.8408423E-2,5.038733E-2,-1.7771997E-3,3.8665365E-2,1.4751273E-2,2.402179E-4,-2.3908524E-2,-2.6900435E-2,-4.8321795E-2,2.854131E-2,2.5549214E-3,4.951542E-4,-2.4004897E-2],"categories":[],"categories_nodes":[],"categories_segments":[],"categories_sizes":[],"default_left":[0,0,0,0,0,0,0,0,0,0,0,0,0,0,0,0,0,0,0,0,0,0,0,0,0,0,0,0,0,0,0],"id":23,"left_children":[1,3,5,7,9,11,13,15,17,19,21,23,25,27,29,-1,-1,-1,-1,-1,-1,-1,-1,-1,-1,-1,-1,-1,-1,-1,-1],"loss_changes":[8.4243585E2,2.3202594E2,3.6706824E2,1.5407536E2,7.18761E1,2.1756659E2,1.394378E2,6.498917E1,8.9562836E1,3.4887756E1,4.6240417E1,1.6675269E2,5.5162964E1,1.0137552E2,4.5983162E1,0E0,0E0,0E0,0E0,0E0,0E0,0E0,0E0,0E0,0E0,0E0,0E0,0E0,0E0,0E0,0E0],"parents":[2147483647,0,0,1,1,2,2,3,3,4,4,5,5,6,6,7,7,8,8,9,9,10,10,11,11,12,12,13,13,14,14],"right_children":[2,4,6,8,10,12,14,16,18,20,22,24,26,28,30,-1,-1,-1,-1,-1,-1,-1,-1,-1,-1,-1,-1,-1,-1,-1,-1],"split_conditions":[2E0,1E0,1E0,3E0,3E0,3E0,3E0,3E0,5E0,5E0,3E0,3E0,3E0,3E0,3E0,3.631213E-2,1.27776405E-2,2.5700398E-3,-4.8408423E-2,5.038733E-2,-1.7771997E-3,3.8665365E-2,1.4751273E-2,2.402179E-4,-2.3908524E-2,-2.6900435E-2,-4.8321795E-2,2.854131E-2,2.5549214E-3,4.951542E-4,-2.4004897E-2],"split_indices":[12,21,21,18,4,12,12,4,10,10,18,4,4,4,4,0,0,0,0,0,0,0,0,0,0,0,0,0,0,0,0],"split_type":[0,0,0,0,0,0,0,0,0,0,0,0,0,0,0,0,0,0,0,0,0,0,0,0,0,0,0,0,0,0,0],"sum_hessian":[1.0815482E4,4.411905E3,6.4035776E3,2.9892742E3,1.4226305E3,4.0883115E3,2.3152659E3,1.1918153E3,1.7974589E3,5.797756E2,8.428549E2,2.874403E3,1.2139084E3,1.5456635E3,7.6960236E2,5.2556555E2,6.6624976E2,1.7077261E3,8.97327E1,5.457982E2,3.3977337E1,3.3904752E2,5.0380737E2,1.3305023E3,1.5439009E3,5.8778735E2,6.2612103E2,6.402921E2,9.0537134E2,3.5545386E2,4.141485E2],"tree_param":{"num_deleted":"0","num_feature":"22","num_nodes":"31","size_leaf_vector":"1"}},{"base_weights":[8.985203E-4,3.2472813E-1,-2.2057356E-1,1.6812389E-1,6.5729904E-1,-4.392094E-1,4.8788474E-3,2.7688554E-1,-3.6418346E-1,7.7457666E-1,2.3048872E-1,-2.0685087E-1,-6.370446E-1,1.6858478E-1,-3.6209646E-1,2.0449131E-3,2.6105601E-2,-4.2719226E-3,-3.123632E-2,5.2724298E-2,2.9494295E-2,2.8407743E-2,-9.9924E-4,5.5618524E-3,-2.1306299E-2,-4.047945E-2,-1.7801851E-2,2.463282E-2,-5.9384893E-4,-2.8615052E-2,-1.2642443E-3],"categories":[],"categories_nodes":[],"categories_segments":[],"categories_sizes":[],"default_left":[0,0,0,0,0,0,0,0,0,0,0,0,0,0,0,0,0,0,0,0,0,0,0,0,0,0,0,0,0,0,0],"id":24,"left_children":[1,3,5,7,9,11,13,15,17,19,21,23,25,27,29,-1,-1,-1,-1,-1,-1,-1,-1,-1,-1,-1,-1,-1,-1,-1,-1],"loss_changes":[7.734351E2,2.2800674E2,3.156803E2,1.7257513E2,6.999176E1,1.4932568E2,1.8953864E2,1.4316429E2,3.6684555E1,5.6206116E1,2.5688086E1,1.0443796E2,8.483533E1,1.27597336E2,6.8891716E1,0E0,0E0,0E0,0E0,0E0,0E0,0E0,0E0,0E0,0E0,0E0,0E0,0E0,0E0,0E0,0E0],"parents":[2147483647,0,0,1,1,2,2,3,3,4,4,5,5,6,6,7,7,8,8,9,9,10,10,11,11,12,12,13,13,14,14],"right_children":[2,4,6,8,10,12,14,16,18,20,22,24,26,28,30,-1,-1,-1,-1,-1,-1,-1,-1,-1,-1,-1,-1,-1,-1,-1,-1],"split_conditions":[2E0,1E0,5.1E1,1E0,1E0,3E0,3E0,5.2E1,3E0,3E0,1E0,3E0,1E0,1E1,1E0,2.0449131E-3,2.6105601E-2,-4.2719226E-3,-3.123632E-2,5.2724298E-2,2.9494295E-2,2.8407743E-2,-9.9924E-4,5.5618524E-3,-2.1306299E-2,-4.047945E-2,-1.7801851E-2,2.463282E-2,-5.9384893E-4,-2.8615052E-2,-1.2642443E-3],"split_indices":[12,21,9,15,15,4,12,9,4,4,1,18,21,2,21,0,0,0,0,0,0,0,0,0,0,0,0,0,0,0,0],"split_type":[0,0,0,0,0,0,0,0,0,0,0,0,0,0,0,0,0,0,0,0,0,0,0,0,0,0,0,0,0,0,0],"sum_hessian":[1.0782213E4,4.3789624E3,6.40325E3,2.9781077E3,1.400855E3,3.2502869E3,3.152963E3,2.4732502E3,5.0485745E2,1.0982628E3,3.025921E2,1.4956652E3,1.7546217E3,2.1807024E3,9.722604E2,1.2609626E3,1.2122876E3,2.4455031E2,2.6030713E2,4.3471637E2,6.635465E2,1.2832603E2,1.7426607E2,6.1051874E2,8.851465E2,1.0859469E3,6.686748E2,7.7937604E2,1.4013265E3,5.982146E2,3.7404578E2],"tree_param":{"num_deleted":"0","num_feature":"22","num_nodes":"31","size_leaf_vector":"1"}},{"base_weights":[-4.837959E-3,3.135378E-1,-2.2339675E-1,3.7274787E-1,-5.0363916E-1,-7.6159514E-2,-5.5339545E-1,4.67351E-1,-1.4519171E-1,-6.7907816E-1,-1.6988608E-1,1.8318863E-1,-2.8967035E-1,-7.4607813E-1,-2.535459E-1,1.5912723E-2,3.9690048E-2,7.8468E-3,-1.7273495E-2,4.7927885E-3,-3.933544E-2,-2.3223242E-2,5.491697E-3,1.261511E-2,-3.560699E-2,-2.6297767E-2,-2.5491118E-3,-2.6430164E-2,-4.4666152E-2,-9.706686E-3,-5.2737325E-2],"categories":[],"categories_nodes":[],"categories_segments":[],"categories_sizes":[],"default_left":[0,0,0,0,0,0,0,0,0,0,0,0,0,0,0,0,0,0,0,0,0,0,0,0,0,0,0,0,0,0,0],"id":25,"left_children":[1,3,5,7,9,11,13,15,17,19,21,23,25,27,29,-1,-1,-1,-1,-1,-1,-1,-1,-1,-1,-1,-1,-1,-1,-1,-1],"loss_changes":[7.466131E2,2.1151077E2,3.090834E2,1.9964038E2,1.718724E1,2.4372287E2,1.1320752E2,1.6738562E2,3.8163956E1,1.6202484E1,8.5502825E0,1.23168755E2,1.361135E2,3.777368E1,3.6416656E1,0E0,0E0,0E0,0E0,0E0,0E0,0E0,0E0,0E0,0E0,0E0,0E0,0E0,0E0,0E0,0E0],"parents":[2147483647,0,0,1,1,2,2,3,3,4,4,5,5,6,6,7,7,8,8,9,9,10,10,11,11,12,12,13,13,14,14],"right_children":[2,4,6,8,10,12,14,16,18,20,22,24,26,28,30,-1,-1,-1,-1,-1,-1,-1,-1,-1,-1,-1,-1,-1,-1,-1,-1],"split_conditions":[2E0,3E0,3E0,4E0,1E0,1E0,1E0,1E0,3E0,2.3E1,4.9E1,3E0,5.1E1,3E0,3E0,1.5912723E-2,3.9690048E-2,7.8468E-3,-1.7273495E-2,4.7927885E-3,-3.933544E-2,-2.3223242E-2,5.491697E-3,1.261511E-2,-3.560699E-2,-2.6297767E-2,-2.5491118E-3,-2.6430164E-2,-4.4666152E-2,-9.706686E-3,-5.2737325E-2],"split_indices":[12,7,12,11,21,1,21,21,18,0,9,7,9,18,7,0,0,0,0,0,0,0,0,0,0,0,0,0,0,0,0],"split_type":[0,0,0,0,0,0,0,0,0,0,0,0,0,0,0,0,0,0,0,0,0,0,0,0,0,0,0,0,0,0,0],"sum_hessian":[1.07276875E4,4.36652E3,6.3611675E3,4.072018E3,2.9450186E2,4.399466E3,1.9617018E3,3.4432048E3,6.2881323E2,1.9235487E2,1.02146996E2,1.9865626E3,2.412903E3,1.1933617E3,7.683401E2,2.365024E3,1.078181E3,2.5075525E2,3.7805795E2,2.3471437E1,1.6888344E2,4.9430393E1,5.2716602E1,1.8448689E3,1.4169374E2,1.2119509E3,1.2009523E3,4.8363776E2,7.09724E2,7.1645447E2,5.1885612E1],"tree_param":{"num_deleted":"0","num_feature":"22","num_nodes":"31","size_leaf_vector":"1"}},{"base_weights":[6.633507E-4,1.0277768E-1,-4.681889E-1,1.6124651E-1,-7.0152545E-1,-6.421913E-1,-1.9636855E-1,2.1295187E-1,-7.550061E-1,-6.539813E-1,-1.5622618E0,-4.3916452E-1,-8.3628696E-1,-4.3746898E-1,4.696594E-2,1.5384614E-2,-1.4886896E-2,-4.9084257E-2,-2.6387453E-2,-4.3467164E-2,-2.2190964E-2,-8.358846E-2,-4.7300234E-2,-1.8830132E-2,-6.5688916E-2,-2.336086E-2,-4.6572115E-2,-6.8225334E-3,-3.2888517E-2,2.9440766E-2,-4.780614E-3],"categories":[],"categories_nodes":[],"categories_segments":[],"categories_sizes":[],"default_left":[0,0,0,0,0,0,0,0,0,0,0,0,0,0,0,0,0,0,0,0,0,0,0,0,0,0,0,0,0,0,0],"id":26,"left_children":[1,3,5,7,9,11,13,15,17,19,21,23,25,27,29,-1,-1,-1,-1,-1,-1,-1,-1,-1,-1,-1,-1,-1,-1,-1,-1],"loss_changes":[5.102611E2,4.1167853E2,9.00275E1,3.8671704E2,2.325711E1,4.541211E1,4.375065E1,3.738206E2,2.1946014E1,2.513884E1,4.6567535E-1,3.0688835E1,2.0383942E1,2.474556E1,2.8785862E1,0E0,0E0,0E0,0E0,0E0,0E0,0E0,0E0,0E0,0E0,0E0,0E0,0E0,0E0,0E0,0E0],"parents":[2147483647,0,0,1,1,2,2,3,3,4,4,5,5,6,6,7,7,8,8,9,9,10,10,11,11,12,12,13,13,14,14],"right_children":[2,4,6,8,10,12,14,16,18,20,22,24,26,28,30,-1,-1,-1,-1,-1,-1,-1,-1,-1,-1,-1,-1,-1,-1,-1,-1],"split_conditions":[1E0,3E0,1E0,5E0,5E0,3E0,5.1E1,4E0,5E1,4.9E1,3E0,3E0,2E0,1E0,2E0,1.5384614E-2,-1.4886896E-2,-4.9084257E-2,-2.6387453E-2,-4.3467164E-2,-2.2190964E-2,-8.358846E-2,-4.7300234E-2,-1.8830132E-2,-6.5688916E-2,-2.336086E-2,-4.6572115E-2,-6.8225334E-3,-3.2888517E-2,2.9440766E-2,-4.780614E-3],"split_indices":[15,7,21,10,10,4,9,11,9,9,13,7,18,1,18,0,0,0,0,0,0,0,0,0,0,0,0,0,0,0,0],"split_type":[0,0,0,0,0,0,0,0,0,0,0,0,0,0,0,0,0,0,0,0,0,0,0,0,0,0,0,0,0,0,0],"sum_hessian":[1.0655849E4,8.750748E3,1.9051006E3,8.158468E3,5.9228033E2,1.1607186E3,7.443819E2,7.7233936E3,4.3507397E2,5.6294495E2,2.9335371E1,5.68902E2,5.918167E2,3.7350662E2,3.7087524E2,6.515138E3,1.2082555E3,2.1615198E2,2.18922E2,2.7648373E2,2.864612E2,2.3454744E1,5.8806267E0,5.322596E2,3.6642395E1,1.2252009E2,4.6929663E2,1.5852226E2,2.1498438E2,7.66078E1,2.9426746E2],"tree_param":{"num_deleted":"0","num_feature":"22","num_nodes":"31","size_leaf_vector":"1"}},{"base_weights":[-1.3055243E-3,1.16191484E-1,-5.316732E-1,1.7523986E-1,-6.909667E-1,-7.2084445E-1,-2.4745251E-1,4.1754806E-1,-1.4555941E-2,-4.6781403E-1,-8.994904E-1,-4.9102628E-1,-9.458957E-1,-1.3813059E-1,-8.184053E-1,2.3636967E-2,-2.7006237E-2,-8.679055E-3,1.3866602E-2,-9.268607E-3,-3.732014E-2,-2.4512732E-2,-4.8601534E-2,-7.1262904E-3,-3.4409057E-2,-3.363931E-2,-5.112009E-2,6.8430356E-3,-1.870969E-2,-1.5947713E-2,-4.516929E-2],"categories":[],"categories_nodes":[],"categories_segments":[],"categories_sizes":[],"default_left":[0,0,0,0,0,0,0,0,0,0,0,0,0,0,0,0,0,0,0,0,0,0,0,0,0,0,0,0,0,0,0],"id":27,"left_children":[1,3,5,7,9,11,13,15,17,19,21,23,25,27,29,-1,-1,-1,-1,-1,-1,-1,-1,-1,-1,-1,-1,-1,-1,-1,-1],"loss_changes":[6.634057E2,4.1549112E2,1.0362909E2,3.7351678E2,2.7233337E1,5.9462402E1,4.8139E1,1.8881061E2,2.1149556E2,2.2614372E1,8.611389E0,3.9432632E1,1.1521362E1,4.224767E1,4.9760666E0,0E0,0E0,0E0,0E0,0E0,0E0,0E0,0E0,0E0,0E0,0E0,0E0,0E0,0E0,0E0,0E0],"parents":[2147483647,0,0,1,1,2,2,3,3,4,4,5,5,6,6,7,7,8,8,9,9,10,10,11,11,12,12,13,13,14,14],"right_children":[2,4,6,8,10,12,14,16,18,20,22,24,26,28,30,-1,-1,-1,-1,-1,-1,-1,-1,-1,-1,-1,-1,-1,-1,-1,-1],"split_conditions":[3E0,3E0,1E0,3E0,2E0,3E0,1E0,5E0,1E0,1E0,2E0,1E1,2E0,3E0,2E0,2.3636967E-2,-2.7006237E-2,-8.679055E-3,1.3866602E-2,-9.268607E-3,-3.732014E-2,-2.4512732E-2,-4.8601534E-2,-7.1262904E-3,-3.4409057E-2,-3.363931E-2,-5.112009E-2,6.8430356E-3,-1.870969E-2,-1.5947713E-2,-4.516929E-2],"split_indices":[12,7,21,4,12,4,15,10,21,20,4,2,18,4,4,0,0,0,0,0,0,0,0,0,0,0,0,0,0,0,0],"split_type":[0,0,0,0,0,0,0,0,0,0,0,0,0,0,0,0,0,0,0,0,0,0,0,0,0,0,0,0,0,0,0],"sum_hessian":[1.0643736E4,8.714022E3,1.929713E3,8.120727E3,5.932961E2,1.1576617E3,7.7205133E2,3.5663916E3,4.554335E3,2.8816174E2,3.0513434E2,5.743391E2,5.833227E2,6.49023E2,1.2302832E2,3.3725366E3,1.9385509E2,2.9484038E3,1.6059313E3,1.4391832E2,1.4424342E2,4.7111717E1,2.580226E2,2.0814131E2,3.6619778E2,1.2979129E2,4.5353137E2,2.9998688E2,3.490361E2,1.8580349E1,1.04447975E2],"tree_param":{"num_deleted":"0","num_feature":"22","num_nodes":"31","size_leaf_vector":"1"}},{"base_weights":[-4.582073E-3,2.5279108E-1,-1.7788036E-1,3.398843E-1,-2.2495066E-1,-3.8046092E-1,2.8781695E-2,5.599713E-1,1.5937947E-1,1.1741787E-2,-4.6407032E-1,-1.7658307E-1,-5.471216E-1,2.6245037E-1,-1.6837664E-1,3.1013904E-2,-1.2284998E-2,-3.3296605E-3,1.925137E-2,1.5999964E-2,-1.1541603E-2,-1.1208239E-2,-3.2765113E-2,1.8864796E-3,-1.9254973E-2,-1.55024445E-2,-3.4325518E-2,1.6324671E-2,-2.9103503E-2,3.8490274E-3,-1.7944772E-2],"categories":[],"categories_nodes":[],"categories_segments":[],"categories_sizes":[],"default_left":[0,0,0,0,0,0,0,0,0,0,0,0,0,0,0,0,0,0,0,0,0,0,0,0,0,0,0,0,0,0,0],"id":28,"left_children":[1,3,5,7,9,11,13,15,17,19,21,23,25,27,29,-1,-1,-1,-1,-1,-1,-1,-1,-1,-1,-1,-1,-1,-1,-1,-1],"loss_changes":[4.7229663E2,1.773663E2,2.649414E2,1.4309955E2,3.72246E1,1.0848749E2,1.4440018E2,7.9043945E1,1.0106998E2,2.4858583E1,1.48619995E1,6.431241E1,5.7875732E1,7.776687E1,7.949869E1,0E0,0E0,0E0,0E0,0E0,0E0,0E0,0E0,0E0,0E0,0E0,0E0,0E0,0E0,0E0,0E0],"parents":[2147483647,0,0,1,1,2,2,3,3,4,4,5,5,6,6,7,7,8,8,9,9,10,10,11,11,12,12,13,13,14,14],"right_children":[2,4,6,8,10,12,14,16,18,20,22,24,26,28,30,-1,-1,-1,-1,-1,-1,-1,-1,-1,-1,-1,-1,-1,-1,-1,-1],"split_conditions":[3E0,4E0,5.1E1,1E0,1E0,1E0,1E0,3E0,5.1E1,3E0,1E0,1E0,1E1,3E0,3E0,3.1013904E-2,-1.2284998E-2,-3.3296605E-3,1.925137E-2,1.5999964E-2,-1.1541603E-2,-1.1208239E-2,-3.2765113E-2,1.8864796E-3,-1.9254973E-2,-1.55024445E-2,-3.4325518E-2,1.6324671E-2,-2.9103503E-2,3.8490274E-3,-1.7944772E-2],"split_indices":[18,11,9,1,20,1,1,7,9,4,1,20,2,7,4,0,0,0,0,0,0,0,0,0,0,0,0,0,0,0,0],"split_type":[0,0,0,0,0,0,0,0,0,0,0,0,0,0,0,0,0,0,0,0,0,0,0,0,0,0,0,0,0,0,0],"sum_hessian":[1.058705E4,4.2599487E3,6.3271016E3,3.6033413E3,6.566075E2,3.1946772E3,3.132424E3,1.6227018E3,1.9806394E3,3.3045633E2,3.2615112E2,1.437827E3,1.7568501E3,1.4333323E3,1.6990919E3,1.5099108E3,1.1279107E2,9.8995984E2,9.9067957E2,1.4538504E2,1.8507129E2,1.4562851E2,1.8052263E2,7.0946234E2,7.283647E2,6.516858E2,1.1051643E3,1.3328693E3,1.0046293E2,7.429234E2,9.561685E2],"tree_param":{"num_deleted":"0","num_feature":"22","num_nodes":"31","size_leaf_vector":"1"}},{"base_weights":[4.9712337E-3,5.2771587E-2,-8.529297E-1,2.7622876E-1,-1.2779737E-1,-9.980273E-1,-5.962808E-1,5.366385E-1,1.0472987E-1,-2.806652E-1,1.3964073E-1,-1.1699548E0,-8.15802E-1,-2.8837394E-2,-6.840179E-1,2.9558329E-2,-9.850784E-3,-2.1638356E-3,2.1099431E-2,-1.867451E-3,-2.2447286E-2,-3.6500096E-3,1.7640652E-2,-4.3912303E-2,-6.3204095E-2,-2.6850333E-2,-5.1983442E-2,-2.885881E-2,2.356919E-2,-2.3253372E-2,-4.788015E-2],"categories":[],"categories_nodes":[],"categories_segments":[],"categories_sizes":[],"default_left":[0,0,0,0,0,0,0,0,0,0,0,0,0,0,0,0,0,0,0,0,0,0,0,0,0,0,0,0,0,0,0],"id":29,"left_children":[1,3,5,7,9,11,13,15,17,19,21,23,25,27,29,-1,-1,-1,-1,-1,-1,-1,-1,-1,-1,-1,-1,-1,-1,-1,-1],"loss_changes":[4.3563934E2,4.0605222E2,2.0283691E1,2.0080197E2,2.2759314E2,1.0220428E1,1.018531E1,7.15484E1,1.27406654E2,1.4501001E2,9.1820206E1,3.8658905E0,1.0455215E1,8.087516E0,1.018631E1,0E0,0E0,0E0,0E0,0E0,0E0,0E0,0E0,0E0,0E0,0E0,0E0,0E0,0E0,0E0,0E0],"parents":[2147483647,0,0,1,1,2,2,3,3,4,4,5,5,6,6,7,7,8,8,9,9,10,10,11,11,12,12,13,13,14,14],"right_children":[2,4,6,8,10,12,14,16,18,20,22,24,26,28,30,-1,-1,-1,-1,-1,-1,-1,-1,-1,-1,-1,-1,-1,-1,-1,-1],"split_conditions":[5E0,3E0,1E0,3E0,1E0,5.1E1,2E0,3E0,1E0,3E0,5.1E1,3E1,3E0,5E1,2E0,2.9558329E-2,-9.850784E-3,-2.1638356E-3,2.1099431E-2,-1.867451E-3,-2.2447286E-2,-3.6500096E-3,1.7640652E-2,-4.3912303E-2,-6.3204095E-2,-2.6850333E-2,-5.1983442E-2,-2.885881E-2,2.356919E-2,-2.3253372E-2,-4.788015E-2],"split_indices":[10,4,21,18,21,9,4,7,21,18,9,0,4,9,11,0,0,0,0,0,0,0,0,0,0,0,0,0,0,0,0],"split_type":[0,0,0,0,0,0,0,0,0,0,0,0,0,0,0,0,0,0,0,0,0,0,0,0,0,0,0,0,0,0,0],"sum_hessian":[1.06211875E4,1.00615205E4,5.596673E2,4.4964976E3,5.5650225E3,3.556885E2,2.0397876E2,1.7845885E3,2.7119092E3,3.5409583E3,2.024064E3,1.8022655E2,1.7546198E2,2.7493288E1,1.7648547E2,1.6613079E3,1.2328064E2,1.8498066E3,8.621026E2,1.4482135E3,2.0927449E3,1.0136241E3,1.0104399E3,4.6487595E1,1.3373895E2,7.9657845E1,9.580412E1,1.3042429E1,1.4450858E1,9.9530785E1,7.695469E1],"tree_param":{"num_deleted":"0","num_feature":"22","num_nodes":"31","size_leaf_vector":"1"}},{"base_weights":[4.0993726E-4,2.933875E-1,-2.0075934E-1,3.9312384E-1,-1.4569427E-1,3.2046545E-2,-3.946713E-1,2.528398E-1,7.210883E-1,-3.312702E-1,1.6949578E-1,1.4192167E-1,-4.9607974E-1,-5.4927766E-1,-1.3386552E-1,1.4958622E-2,-3.1529233E-2,4.9898192E-2,2.7425298E-2,-2.830833E-2,-5.1254095E-3,1.19085815E-2,-3.652702E-2,9.96804E-3,-4.0641088E-2,-1.3772993E-2,-3.833704E-2,-1.730827E-2,-3.6921874E-2,-1.7944413E-3,-3.3843797E-2],"categories":[],"categories_nodes":[],"categories_segments":[],"categories_sizes":[],"default_left":[0,0,0,0,0,0,0,0,0,0,0,0,0,0,0,0,0,0,0,0,0,0,0,0,0,0,0,0,0,0,0],"id":30,"left_children":[1,3,5,7,9,11,13,15,17,19,21,23,25,27,29,-1,-1,-1,-1,-1,-1,-1,-1,-1,-1,-1,-1,-1,-1,-1,-1],"loss_changes":[6.209508E2,1.8788754E2,2.8200552E2,1.6063708E2,4.6536667E1,1.6484189E2,1.3734552E2,1.0046153E2,4.9466675E1,2.683678E1,1.8417242E1,1.2910547E2,2.9002762E1,8.193829E1,6.752705E1,0E0,0E0,0E0,0E0,0E0,0E0,0E0,0E0,0E0,0E0,0E0,0E0,0E0,0E0,0E0,0E0],"parents":[2147483647,0,0,1,1,2,2,3,3,4,4,5,5,6,6,7,7,8,8,9,9,10,10,11,11,12,12,13,13,14,14],"right_children":[2,4,6,8,10,12,14,16,18,20,22,24,26,28,30,-1,-1,-1,-1,-1,-1,-1,-1,-1,-1,-1,-1,-1,-1,-1,-1],"split_conditions":[2E0,1E0,1E0,1E0,1E0,1E0,1E0,5E0,3E0,5.1E1,3E0,5E0,1E0,3E0,4E0,1.4958622E-2,-3.1529233E-2,4.9898192E-2,2.7425298E-2,-2.830833E-2,-5.1254095E-3,1.19085815E-2,-3.652702E-2,9.96804E-3,-4.0641088E-2,-1.3772993E-2,-3.833704E-2,-1.730827E-2,-3.6921874E-2,-1.7944413E-3,-3.3843797E-2],"split_indices":[12,15,1,21,21,15,21,10,4,9,7,10,20,4,11,0,0,0,0,0,0,0,0,0,0,0,0,0,0,0,0],"split_type":[0,0,0,0,0,0,0,0,0,0,0,0,0,0,0,0,0,0,0,0,0,0,0,0,0,0,0,0,0,0,0],"sum_hessian":[1.0533647E4,4.288106E3,6.2455415E3,3.494454E3,7.9365186E2,2.83852E3,3.4070217E3,2.44878E3,1.0456741E3,4.9950497E2,2.9414688E2,2.350282E3,4.8823798E2,2.1383162E3,1.2687056E3,2.3273782E3,1.2140174E2,3.9968024E2,6.459938E2,2.4572044E2,2.5378453E2,2.7397687E2,2.017E1,2.2176548E3,1.3262703E2,2.7009622E2,2.1814175E2,1.0324948E3,1.1058214E3,1.0756833E3,1.9302213E2],"tree_param":{"num_deleted":"0","num_feature":"22","num_nodes":"31","size_leaf_vector":"1"}},{"base_weights":[-1.2729462E-3,9.318462E-2,-4.4004542E-1,-4.670716E-2,3.727076E-1,-5.9809506E-1,-2.0123446E-1,2.2714806E-1,-2.0362829E-1,4.3513182E-1,-3.8317117E-1,-3.9704064E-1,-7.955911E-1,2.5451997E-2,-3.8345182E-1,1.1515373E-3,2.1537317E-2,-5.970035E-3,-3.3470158E-2,3.5039064E-2,1.2638356E-2,-3.8244274E-2,-7.0700385E-3,-2.9564574E-2,-8.023354E-3,-3.057688E-2,-4.831649E-2,4.6328963E-3,-4.364128E-2,-4.7925785E-3,-2.8570984E-2],"categories":[],"categories_nodes":[],"categories_segments":[],"categories_sizes":[],"default_left":[0,0,0,0,0,0,0,0,0,0,0,0,0,0,0,0,0,0,0,0,0,0,0,0,0,0,0,0,0,0,0],"id":31,"left_children":[1,3,5,7,9,11,13,15,17,19,21,23,25,27,29,-1,-1,-1,-1,-1,-1,-1,-1,-1,-1,-1,-1,-1,-1,-1,-1],"loss_changes":[4.353037E2,3.3796655E2,7.010373E1,2.4760875E2,1.3618964E2,4.41196E1,3.0678196E1,8.7219666E1,1.4361603E2,1.2884698E2,2.0235844E1,2.5480537E1,1.7118164E1,2.011139E1,2.2199791E1,0E0,0E0,0E0,0E0,0E0,0E0,0E0,0E0,0E0,0E0,0E0,0E0,0E0,0E0,0E0,0E0],"parents":[2147483647,0,0,1,1,2,2,3,3,4,4,5,5,6,6,7,7,8,8,9,9,10,10,11,11,12,12,13,13,14,14],"right_children":[2,4,6,8,10,12,14,16,18,20,22,24,26,28,30,-1,-1,-1,-1,-1,-1,-1,-1,-1,-1,-1,-1,-1,-1,-1,-1],"split_conditions":[1E0,1E0,1E0,1E1,3E0,3E0,3E0,5.1E1,4E0,3E0,3.7E1,5.7E1,1.3E1,3E0,1.1E1,1.1515373E-3,2.1537317E-2,-5.970035E-3,-3.3470158E-2,3.5039064E-2,1.2638356E-2,-3.8244274E-2,-7.0700385E-3,-2.9564574E-2,-8.023354E-3,-3.057688E-2,-4.831649E-2,4.6328963E-3,-4.364128E-2,-4.7925785E-3,-2.8570984E-2],"split_indices":[15,21,21,2,7,4,4,9,11,4,9,9,2,7,2,0,0,0,0,0,0,0,0,0,0,0,0,0,0,0,0],"split_type":[0,0,0,0,0,0,0,0,0,0,0,0,0,0,0,0,0,0,0,0,0,0,0,0,0,0,0,0,0,0,0],"sum_hessian":[1.0501082E4,8.641545E3,1.8595371E3,5.7597954E3,2.8817493E3,1.1180717E3,7.414655E2,2.0979873E3,3.661808E3,2.6623074E3,2.1944212E2,5.5553644E2,5.625352E2,3.307982E2,4.106673E2,1.0482141E3,1.0497732E3,3.1021013E3,5.5970667E2,1.0825383E3,1.5797689E3,8.425466E1,1.3518747E2,3.0423187E2,2.5130455E2,2.729169E2,2.896183E2,3.0860623E2,2.2191967E1,1.6291267E2,2.4775462E2],"tree_param":{"num_deleted":"0","num_feature":"22","num_nodes":"31","size_leaf_vector":"1"}},{"base_weights":[3.6078393E-3,2.9411852E-1,-1.9570106E-1,3.7813726E-1,-1.558427E-1,-1.0440301E-1,-6.474841E-1,4.2987773E-1,-3.4168112E-1,8.515225E-2,-3.665659E-1,-1.6563926E-2,-5.881272E-1,-8.295409E-1,-3.9636704E-1,1.2120583E-2,3.1195596E-2,-2.8069964E-2,1.933144E-3,-4.0018647E-3,2.6708676E-2,-3.5492943E-3,-3.1209601E-2,1.085704E-2,-1.0538181E-2,-3.862031E-2,-1.9724492E-2,-3.2363642E-2,-5.08666E-2,-1.2006343E-2,-4.0539015E-2],"categories":[],"categories_nodes":[],"categories_segments":[],"categories_sizes":[],"default_left":[0,0,0,0,0,0,0,0,0,0,0,0,0,0,0,0,0,0,0,0,0,0,0,0,0,0,0,0,0,0,0],"id":32,"left_children":[1,3,5,7,9,11,13,15,17,19,21,23,25,27,29,-1,-1,-1,-1,-1,-1,-1,-1,-1,-1,-1,-1,-1,-1,-1,-1],"loss_changes":[6.050169E2,1.6079742E2,2.5555359E2,1.3359344E2,3.404066E1,2.1909746E2,4.729294E1,1.2145801E2,2.0148005E1,2.327548E1,2.7177296E1,1.9816331E2,2.7972961E1,1.9979279E1,2.827539E1,0E0,0E0,0E0,0E0,0E0,0E0,0E0,0E0,0E0,0E0,0E0,0E0,0E0,0E0,0E0,0E0],"parents":[2147483647,0,0,1,1,2,2,3,3,4,4,5,5,6,6,7,7,8,8,9,9,10,10,11,11,12,12,13,13,14,14],"right_children":[2,4,6,8,10,12,14,16,18,20,22,24,26,28,30,-1,-1,-1,-1,-1,-1,-1,-1,-1,-1,-1,-1,-1,-1,-1,-1],"split_conditions":[2E0,4E0,1E0,3E0,1E0,4E0,1E0,5.1E1,1E0,7.3E1,3E0,3E0,5.1E1,3E0,3E0,1.2120583E-2,3.1195596E-2,-2.8069964E-2,1.933144E-3,-4.0018647E-3,2.6708676E-2,-3.5492943E-3,-3.1209601E-2,1.085704E-2,-1.0538181E-2,-3.862031E-2,-1.9724492E-2,-3.2363642E-2,-5.08666E-2,-1.2006343E-2,-4.0539015E-2],"split_indices":[12,11,15,7,20,11,21,9,21,9,4,4,9,4,12,0,0,0,0,0,0,0,0,0,0,0,0,0,0,0,0],"split_type":[0,0,0,0,0,0,0,0,0,0,0,0,0,0,0,0,0,0,0,0,0,0,0,0,0,0,0,0,0,0,0],"sum_hessian":[1.0447101E4,4.2507593E3,6.196341E3,3.582061E3,6.686984E2,5.1556904E3,1.0406505E3,3.342225E3,2.3983601E2,3.122209E2,3.5647754E2,4.364228E3,7.914624E2,6.019447E2,4.387058E2,1.7010272E3,1.6411978E3,1.5171617E2,8.8119835E1,2.2885106E2,8.336982E1,1.6660431E2,1.8987323E2,1.9806031E3,2.383625E3,4.0399918E2,3.8746323E2,3.077208E2,2.9422394E2,3.197388E2,1.18967E2],"tree_param":{"num_deleted":"0","num_feature":"22","num_nodes":"31","size_leaf_vector":"1"}},{"base_weights":[4.8681785E-4,2.1504803E-1,-1.7554997E-1,2.7009E-1,-5.299998E-1,-3.5735905E-1,9.0244105E-3,4.9588144E-1,8.733405E-2,-2.96608E-1,-7.32431E-1,-2.793582E-1,-7.737637E-1,-1.3234152E-1,2.7833247E-1,2.739732E-2,-1.7696263E-2,-7.2800773E-3,1.4302345E-2,-1.1347489E-2,-6.716171E-2,-2.4951663E-2,-5.1150758E-2,-2.0650838E-2,-1.6533027E-3,-2.4097744E-2,-4.395577E-2,-2.0427506E-3,-2.9678052E-2,2.6724264E-2,5.3193714E-3],"categories":[],"categories_nodes":[],"categories_segments":[],"categories_sizes":[],"default_left":[0,0,0,0,0,0,0,0,0,0,0,0,0,0,0,0,0,0,0,0,0,0,0,0,0,0,0,0,0,0,0],"id":33,"left_children":[1,3,5,7,9,11,13,15,17,19,21,23,25,27,29,-1,-1,-1,-1,-1,-1,-1,-1,-1,-1,-1,-1,-1,-1,-1,-1],"loss_changes":[3.9415555E2,1.9301306E2,1.9236612E2,1.807059E2,1.5085091E1,9.358072E1,1.08368904E2,8.687912E1,1.12151E2,1.0785637E1,1.1206879E1,8.01048E1,1.356543E1,7.8741516E1,4.3099243E1,0E0,0E0,0E0,0E0,0E0,0E0,0E0,0E0,0E0,0E0,0E0,0E0,0E0,0E0,0E0,0E0],"parents":[2147483647,0,0,1,1,2,2,3,3,4,4,5,5,6,6,7,7,8,8,9,9,10,10,11,11,12,12,13,13,14,14],"right_children":[2,4,6,8,10,12,14,16,18,20,22,24,26,28,30,-1,-1,-1,-1,-1,-1,-1,-1,-1,-1,-1,-1,-1,-1,-1,-1],"split_conditions":[1E0,3E0,5.1E1,3E0,3E0,4E0,1E0,5E0,4.7E1,5E0,2E0,1E0,3E1,1E0,3E0,2.739732E-2,-1.7696263E-2,-7.2800773E-3,1.4302345E-2,-1.1347489E-2,-6.716171E-2,-2.4951663E-2,-5.1150758E-2,-2.0650838E-2,-1.6533027E-3,-2.4097744E-2,-4.395577E-2,-2.0427506E-3,-2.9678052E-2,2.6724264E-2,5.3193714E-3],"split_indices":[1,7,9,4,4,11,21,10,9,10,11,21,0,15,4,0,0,0,0,0,0,0,0,0,0,0,0,0,0,0,0],"split_type":[0,0,0,0,0,0,0,0,0,0,0,0,0,0,0,0,0,0,0,0,0,0,0,0,0,0,0,0,0,0,0],"sum_hessian":[1.0433494E4,4.7021226E3,5.731371E3,4.379235E3,3.2288776E2,2.8868428E3,2.8445283E3,1.9582017E3,2.4210332E3,1.5112007E2,1.7176768E2,2.4328018E3,4.540411E2,1.8656925E3,9.788359E2,1.8454896E3,1.1271211E2,1.1146652E3,1.3063679E3,1.428308E2,8.289267E0,9.6763985E1,7.500369E1,1.5765552E3,8.562466E2,1.21918724E2,3.3212238E2,1.5577826E3,3.0790985E2,3.923015E2,5.8653436E2],"tree_param":{"num_deleted":"0","num_feature":"22","num_nodes":"31","size_leaf_vector":"1"}},{"base_weights":[-4.928561E-3,1.0695753E-1,-5.135875E-1,3.449211E-1,-5.132141E-2,-4.3419996E-1,-9.6182746E-1,3.9867744E-1,-3.8505578E-1,-4.752735E-3,-8.743878E-1,-6.336219E-1,-2.31532E-1,-7.5225854E-1,-1.0175575E0,2.448961E-2,-5.8687147E-4,-5.741247E-3,-3.1609725E-2,1.0595025E-2,-9.212529E-3,-3.352972E-2,-5.262279E-2,-2.0241242E-2,-3.9566215E-2,2.5777842E-4,-1.9710278E-2,-4.1218154E-2,-6.259892E-3,-3.802032E-2,-5.300607E-2],"categories":[],"categories_nodes":[],"categories_segments":[],"categories_sizes":[],"default_left":[0,0,0,0,0,0,0,0,0,0,0,0,0,0,0,0,0,0,0,0,0,0,0,0,0,0,0,0,0,0,0],"id":34,"left_children":[1,3,5,7,9,11,13,15,17,19,21,23,25,27,29,-1,-1,-1,-1,-1,-1,-1,-1,-1,-1,-1,-1,-1,-1,-1,-1],"loss_changes":[5.917677E2,3.210416E2,6.629587E1,1.3375797E2,1.9622147E2,6.429822E1,2.5194702E0,1.18610504E2,1.5557598E1,1.8850778E2,9.242569E0,2.8657776E1,3.0511711E1,2.7415771E0,1.594635E0,0E0,0E0,0E0,0E0,0E0,0E0,0E0,0E0,0E0,0E0,0E0,0E0,0E0,0E0,0E0,0E0],"parents":[2147483647,0,0,1,1,2,2,3,3,4,4,5,5,6,6,7,7,8,8,9,9,10,10,11,11,12,12,13,13,14,14],"right_children":[2,4,6,8,10,12,14,16,18,20,22,24,26,28,30,-1,-1,-1,-1,-1,-1,-1,-1,-1,-1,-1,-1,-1,-1,-1,-1],"split_conditions":[3E0,3E0,1E0,3E0,5E0,5.1E1,2E0,1E0,2E0,1E0,1E0,3E0,3E0,8.6E1,4.848E3,2.448961E-2,-5.8687147E-4,-5.741247E-3,-3.1609725E-2,1.0595025E-2,-9.212529E-3,-3.352972E-2,-5.262279E-2,-2.0241242E-2,-3.9566215E-2,2.5777842E-4,-1.9710278E-2,-4.1218154E-2,-6.259892E-3,-3.802032E-2,-5.300607E-2],"split_indices":[12,18,15,7,10,9,18,15,12,1,1,18,18,9,3,0,0,0,0,0,0,0,0,0,0,0,0,0,0,0,0],"split_type":[0,0,0,0,0,0,0,0,0,0,0,0,0,0,0,0,0,0,0,0,0,0,0,0,0,0,0,0,0,0,0],"sum_hessian":[1.0396003E4,8.52222E3,1.8737826E3,3.4037268E3,5.118493E3,1.5935233E3,2.8025934E2,3.1706877E3,2.3303915E2,4.8453516E3,2.7314172E2,8.02122E2,7.9140125E2,6.191832E1,2.1834102E2,2.594499E3,5.761888E2,1.1201851E2,1.2102065E2,2.195369E3,2.6499827E3,1.2959271E2,1.4354903E2,3.2874326E2,4.7337878E2,3.2275946E2,4.6864178E2,5.5250523E1,6.6677995E0,3.36867E1,1.8465431E2],"tree_param":{"num_deleted":"0","num_feature":"22","num_nodes":"31","size_leaf_vector":"1"}},{"base_weights":[-3.7077751E-3,2.625722E-1,-1.873284E-1,4.757307E-1,8.9903876E-2,-9.943405E-2,-6.213128E-1,5.3315324E-1,-2.6790962E-1,1.353085E-1,-7.563072E-1,-4.7032766E-2,-8.4009886E-1,-4.857626E-1,-9.85674E-1,2.0469345E-2,4.1036364E-2,1.8731654E-3,-2.7213117E-2,1.1468902E-2,-1.3664794E-2,-2.472346E-2,-4.7725506E-2,-9.7660385E-3,1.0842464E-2,-3.0233819E-2,-5.0392903E-2,-6.452546E-4,-3.0572584E-2,-4.3035414E-2,-5.6195717E-2],"categories":[],"categories_nodes":[],"categories_segments":[],"categories_sizes":[],"default_left":[0,0,0,0,0,0,0,0,0,0,0,0,0,0,0,0,0,0,0,0,0,0,0,0,0,0,0,0,0,0,0],"id":35,"left_children":[1,3,5,7,9,11,13,15,17,19,21,23,25,27,29,-1,-1,-1,-1,-1,-1,-1,-1,-1,-1,-1,-1,-1,-1,-1,-1],"loss_changes":[5.071312E2,1.5576218E2,2.3410028E2,8.102969E1,9.000734E1,1.981364E2,5.0574646E1,6.226245E1,1.1535453E1,8.5456024E1,5.719902E0,1.8668542E2,1.2712845E1,4.488678E1,3.8578491E0,0E0,0E0,0E0,0E0,0E0,0E0,0E0,0E0,0E0,0E0,0E0,0E0,0E0,0E0,0E0,0E0],"parents":[2147483647,0,0,1,1,2,2,3,3,4,4,5,5,6,6,7,7,8,8,9,9,10,10,11,11,12,12,13,13,14,14],"right_children":[2,4,6,8,10,12,14,16,18,20,22,24,26,28,30,-1,-1,-1,-1,-1,-1,-1,-1,-1,-1,-1,-1,-1,-1,-1,-1],"split_conditions":[2E0,1E0,1E0,3E0,5E0,3E0,3E0,1E0,3E0,1E0,3.6E1,1E0,3E0,2E0,1E0,2.0469345E-2,4.1036364E-2,1.8731654E-3,-2.7213117E-2,1.1468902E-2,-1.3664794E-2,-2.472346E-2,-4.7725506E-2,-9.7660385E-3,1.0842464E-2,-3.0233819E-2,-5.0392903E-2,-6.452546E-4,-3.0572584E-2,-4.3035414E-2,-5.6195717E-2],"split_indices":[12,1,15,7,10,7,12,21,4,15,0,21,18,18,20,0,0,0,0,0,0,0,0,0,0,0,0,0,0,0,0],"split_type":[0,0,0,0,0,0,0,0,0,0,0,0,0,0,0,0,0,0,0,0,0,0,0,0,0,0,0,0,0,0,0],"sum_hessian":[1.0369943E4,4.232172E3,6.1377715E3,1.89323E3,2.3389417E3,5.1050757E3,1.0326959E3,1.7577805E3,1.3544951E2,2.2206309E3,1.1831093E2,4.768755E3,3.3632108E2,7.543826E2,2.7831332E2,1.2305844E3,5.2719617E2,6.475687E1,7.0692635E1,1.8054222E3,4.1520853E2,5.2478474E1,6.583246E1,3.0532478E3,1.715507E3,1.4185513E2,1.9446593E2,1.5864471E2,5.957379E2,1.4997021E2,1.2834311E2],"tree_param":{"num_deleted":"0","num_feature":"22","num_nodes":"31","size_leaf_vector":"1"}},{"base_weights":[-6.9703264E-3,9.455058E-2,-4.7679785E-1,3.2857952E-1,-6.2404793E-2,-6.4690155E-1,-2.3784457E-1,1.4696388E-1,5.2777207E-1,1.9685787E-1,-2.1046016E-1,-3.9656135E-1,-7.932286E-1,-4.4356388E-1,-1.5318573E-2,1.911756E-2,-2.2268742E-3,3.5690814E-2,1.79369E-2,1.2521637E-2,-2.9669268E-2,-6.0428027E-3,-3.1264253E-2,-3.1749077E-2,-8.451703E-3,-2.9658182E-2,-4.693915E-2,-1.1196972E-2,-3.128494E-2,2.079482E-3,-4.658467E-2],"categories":[],"categories_nodes":[],"categories_segments":[],"categories_sizes":[],"default_left":[0,0,0,0,0,0,0,0,0,0,0,0,0,0,0,0,0,0,0,0,0,0,0,0,0,0,0,0,0,0,0],"id":36,"left_children":[1,3,5,7,9,11,13,15,17,19,21,23,25,27,29,-1,-1,-1,-1,-1,-1,-1,-1,-1,-1,-1,-1,-1,-1,-1,-1],"loss_changes":[4.9421964E2,3.129973E2,7.468149E1,1.23668E2,1.9584128E2,3.906125E1,3.5113804E1,8.073338E1,5.1034637E1,7.866884E1,1.2062569E2,2.1511574E1,1.9168915E1,1.5805046E1,1.931202E1,0E0,0E0,0E0,0E0,0E0,0E0,0E0,0E0,0E0,0E0,0E0,0E0,0E0,0E0,0E0,0E0],"parents":[2147483647,0,0,1,1,2,2,3,3,4,4,5,5,6,6,7,7,8,8,9,9,10,10,11,11,12,12,13,13,14,14],"right_children":[2,4,6,8,10,12,14,16,18,20,22,24,26,28,30,-1,-1,-1,-1,-1,-1,-1,-1,-1,-1,-1,-1,-1,-1,-1,-1],"split_conditions":[3E0,3E0,1E0,5.3E1,1E1,1E1,5.3E1,1E0,1.3E1,3E0,1E0,5.1E1,3E0,1E0,5E0,1.911756E-2,-2.2268742E-3,3.5690814E-2,1.79369E-2,1.2521637E-2,-2.9669268E-2,-6.0428027E-3,-3.1264253E-2,-3.1749077E-2,-8.451703E-3,-2.9658182E-2,-4.693915E-2,-1.1196972E-2,-3.128494E-2,2.079482E-3,-4.658467E-2],"split_indices":[12,18,21,9,2,2,9,1,2,7,15,9,18,1,10,0,0,0,0,0,0,0,0,0,0,0,0,0,0,0,0],"split_type":[0,0,0,0,0,0,0,0,0,0,0,0,0,0,0,0,0,0,0,0,0,0,0,0,0,0,0,0,0,0,0],"sum_hessian":[1.0359637E4,8.519525E3,1.8401108E3,3.4196096E3,5.099916E3,1.0739153E3,7.661955E2,1.789633E3,1.6299767E3,1.8536404E3,3.2462756E3,3.9752658E2,6.7638873E2,3.9761646E2,3.6857904E2,8.0237854E2,9.872545E2,7.7441156E2,8.5556506E2,1.7365906E3,1.17049805E2,2.6706863E3,5.755894E2,1.9324217E2,2.0428441E2,2.8699213E2,3.893966E2,1.8126747E2,2.1634898E2,3.4792688E2,2.0652153E1],"tree_param":{"num_deleted":"0","num_feature":"22","num_nodes":"31","size_leaf_vector":"1"}},{"base_weights":[-1.0337145E-3,2.4837501E-1,-1.7245041E-1,4.619032E-1,8.834212E-2,3.386324E-2,-3.4725815E-1,5.6300884E-1,7.693215E-2,3.2233393E-1,-6.935334E-2,2.5819156E-1,-1.5354939E-1,-1.3154964E-1,-4.9597442E-1,3.9847877E-2,1.9439647E-2,6.8857945E-3,-3.9609283E-2,2.097181E-2,-6.9436203E-3,1.0211543E-3,-2.8719133E-2,1.789094E-2,-1.2757112E-2,-1.8703965E-2,3.8376388E-3,3.8225334E-3,-1.54926395E-2,-1.2792361E-2,-3.1854976E-2],"categories":[],"categories_nodes":[],"categories_segments":[],"categories_sizes":[],"default_left":[0,0,0,0,0,0,0,0,0,0,0,0,0,0,0,0,0,0,0,0,0,0,0,0,0,0,0,0,0,0,0],"id":37,"left_children":[1,3,5,7,9,11,13,15,17,19,21,23,25,27,29,-1,-1,-1,-1,-1,-1,-1,-1,-1,-1,-1,-1,-1,-1,-1,-1],"loss_changes":[4.414174E2,1.4367365E2,2.2070178E2,7.007477E1,8.877325E1,1.18075874E2,1.062012E2,5.783484E1,1.996564E1,4.343297E1,6.519583E1,6.54663E1,7.774928E1,5.02095E1,6.627173E1,0E0,0E0,0E0,0E0,0E0,0E0,0E0,0E0,0E0,0E0,0E0,0E0,0E0,0E0,0E0,0E0],"parents":[2147483647,0,0,1,1,2,2,3,3,4,4,5,5,6,6,7,7,8,8,9,9,10,10,11,11,12,12,13,13,14,14],"right_children":[2,4,6,8,10,12,14,16,18,20,22,24,26,28,30,-1,-1,-1,-1,-1,-1,-1,-1,-1,-1,-1,-1,-1,-1,-1,-1],"split_conditions":[2E0,3E0,1E0,1E0,3E0,3E0,3E0,1E0,3E0,1E0,4E0,4E0,5.2E1,3E0,1E1,3.9847877E-2,1.9439647E-2,6.8857945E-3,-3.9609283E-2,2.097181E-2,-6.9436203E-3,1.0211543E-3,-2.8719133E-2,1.789094E-2,-1.2757112E-2,-1.8703965E-2,3.8376388E-3,3.8225334E-3,-1.54926395E-2,-1.2792361E-2,-3.1854976E-2],"split_indices":[12,4,1,15,18,4,18,20,7,15,11,11,9,4,2,0,0,0,0,0,0,0,0,0,0,0,0,0,0,0,0],"split_type":[0,0,0,0,0,0,0,0,0,0,0,0,0,0,0,0,0,0,0,0,0,0,0,0,0,0,0,0,0,0,0],"sum_hessian":[1.0322869E4,4.2046772E3,6.118192E3,1.800468E3,2.4042092E3,2.8065815E3,3.3116104E3,1.4255983E3,3.7486984E2,9.6752765E2,1.4366816E3,1.2773032E3,1.5292783E3,1.3521875E3,1.9594229E3,6.06959E2,8.186392E2,3.511527E2,2.3717125E1,7.993279E2,1.6819977E2,1.2206522E3,2.160294E2,1.0699513E3,2.0735191E2,7.8089453E2,7.483837E2,6.2438257E2,7.2780493E2,7.2634503E2,1.2330779E3],"tree_param":{"num_deleted":"0","num_feature":"22","num_nodes":"31","size_leaf_vector":"1"}},{"base_weights":[-4.6115764E-3,2.3904486E-1,-1.7120038E-1,3.2018897E-1,-2.0010233E-1,-8.973724E-2,-5.821093E-1,3.6410007E-1,-4.7998303E-1,3.7092578E-2,-3.9421847E-1,-4.3322455E-2,-9.104576E-1,-7.789715E-1,-3.2206172E-1,1.2133025E-2,3.2612145E-2,-3.201316E-2,-7.662815E-3,8.861179E-3,-2.4458652E-2,1.0284825E-2,-2.6632851E-2,1.8747092E-3,-2.4350932E-2,-3.0360607E-2,-5.3347595E-2,-3.0452589E-2,-4.8092697E-2,-3.582103E-3,-2.6208598E-2],"categories":[],"categories_nodes":[],"categories_segments":[],"categories_sizes":[],"default_left":[0,0,0,0,0,0,0,0,0,0,0,0,0,0,0,0,0,0,0,0,0,0,0,0,0,0,0,0,0,0,0],"id":38,"left_children":[1,3,5,7,9,11,13,15,17,19,21,23,25,27,29,-1,-1,-1,-1,-1,-1,-1,-1,-1,-1,-1,-1,-1,-1,-1,-1],"loss_changes":[4.1761502E2,1.4893936E2,2.0449434E2,1.2408978E2,3.0043768E1,1.9426822E2,5.1496735E1,1.1684729E2,9.532169E0,2.1800522E1,2.9904434E1,1.7317035E2,1.2306656E1,1.727005E1,2.2091393E1,0E0,0E0,0E0,0E0,0E0,0E0,0E0,0E0,0E0,0E0,0E0,0E0,0E0,0E0,0E0,0E0],"parents":[2147483647,0,0,1,1,2,2,3,3,4,4,5,5,6,6,7,7,8,8,9,9,10,10,11,11,12,12,13,13,14,14],"right_children":[2,4,6,8,10,12,14,16,18,20,22,24,26,28,30,-1,-1,-1,-1,-1,-1,-1,-1,-1,-1,-1,-1,-1,-1,-1,-1],"split_conditions":[2E0,4E0,1E0,5E0,3E0,5E0,1E0,1E0,1E0,1E0,3E0,4E0,1E1,3E0,3E0,1.2133025E-2,3.2612145E-2,-3.201316E-2,-7.662815E-3,8.861179E-3,-2.4458652E-2,1.0284825E-2,-2.6632851E-2,1.8747092E-3,-2.4350932E-2,-3.0360607E-2,-5.3347595E-2,-3.0452589E-2,-4.8092697E-2,-3.582103E-3,-2.6208598E-2],"split_indices":[12,11,15,10,4,10,21,21,21,15,6,11,2,4,4,0,0,0,0,0,0,0,0,0,0,0,0,0,0,0,0],"split_type":[0,0,0,0,0,0,0,0,0,0,0,0,0,0,0,0,0,0,0,0,0,0,0,0,0,0,0,0,0,0,0],"sum_hessian":[1.0286499E4,4.176875E3,6.109624E3,3.5256824E3,6.511926E2,5.0998013E3,1.00982294E3,3.3427852E3,1.8289723E2,2.9344025E2,3.5775238E2,4.8278228E3,2.719785E2,5.735991E2,4.3622382E2,2.3529585E3,9.898267E2,1.2205964E2,6.0837597E1,2.3225893E2,6.118133E1,6.698616E1,2.9076624E2,4.084729E3,7.4309375E2,9.424195E1,1.7773653E2,2.9958185E2,2.7401724E2,1.9543251E2,2.4079132E2],"tree_param":{"num_deleted":"0","num_feature":"22","num_nodes":"31","size_leaf_vector":"1"}},{"base_weights":[-2.2648268E-3,-1.8375234E-1,1.7913826E-1,-1.0198808E-1,-5.8313894E-1,4.2022926E-1,4.033615E-2,1.1578868E-1,-2.4746235E-1,-2.1127555E-1,-6.810683E-1,6.2984264E-1,2.4515359E-1,1.20178044E-1,-4.045436E-1,1.6630635E-2,-3.0409219E-3,2.7046617E-4,-1.9727828E-2,-5.9936866E-3,-3.717124E-2,-4.2023297E-2,-2.2713155E-2,4.3208163E-2,2.3963E-2,2.2933487E-2,3.3834279E-3,1.6256608E-2,-2.1020721E-3,-2.8309887E-2,-5.7013817E-3],"categories":[],"categories_nodes":[],"categories_segments":[],"categories_sizes":[],"default_left":[0,0,0,0,0,0,0,0,0,0,0,0,0,0,0,0,0,0,0,0,0,0,0,0,0,0,0,0,0,0,0],"id":39,"left_children":[1,3,5,7,9,11,13,15,17,19,21,23,25,27,29,-1,-1,-1,-1,-1,-1,-1,-1,-1,-1,-1,-1,-1,-1,-1,-1],"loss_changes":[3.371291E2,1.6709972E2,1.7136043E2,1.3467885E2,3.152597E1,6.850992E1,1.1553139E2,6.522479E1,9.479245E1,8.7988825E0,2.4488312E1,2.9609406E1,3.8666637E1,9.1686035E1,2.3179039E1,0E0,0E0,0E0,0E0,0E0,0E0,0E0,0E0,0E0,0E0,0E0,0E0,0E0,0E0,0E0,0E0],"parents":[2147483647,0,0,1,1,2,2,3,3,4,4,5,5,6,6,7,7,8,8,9,9,10,10,11,11,12,12,13,13,14,14],"right_children":[2,4,6,8,10,12,14,16,18,20,22,24,26,28,30,-1,-1,-1,-1,-1,-1,-1,-1,-1,-1,-1,-1,-1,-1,-1,-1],"split_conditions":[5.1E1,1E0,1E1,3E0,2E0,1E0,4E0,1E0,1E1,4E0,1E0,3E0,3E0,3E0,1E0,1.6630635E-2,-3.0409219E-3,2.7046617E-4,-1.9727828E-2,-5.9936866E-3,-3.717124E-2,-4.2023297E-2,-2.2713155E-2,4.3208163E-2,2.3963E-2,2.2933487E-2,3.3834279E-3,1.6256608E-2,-2.1020721E-3,-2.8309887E-2,-5.7013817E-3],"split_indices":[9,15,2,18,18,1,11,1,2,11,21,18,4,4,21,0,0,0,0,0,0,0,0,0,0,0,0,0,0,0,0],"split_type":[0,0,0,0,0,0,0,0,0,0,0,0,0,0,0,0,0,0,0,0,0,0,0,0,0,0,0,0,0,0,0],"sum_hessian":[1.0238114E4,5.1178594E3,5.1202544E3,4.249199E3,8.6866034E2,1.8700542E3,3.2502002E3,1.701795E3,2.547404E3,1.8173244E2,6.869279E2,8.498974E2,1.0201568E3,2.756267E3,4.9393317E2,7.635215E2,9.382736E2,9.372051E2,1.610199E3,1.5613927E2,2.5593174E1,4.0182303E2,2.8510486E2,3.3064462E2,5.192528E2,4.6235507E2,5.5780176E2,1.2172914E3,1.5389756E3,3.1673874E2,1.7719444E2],"tree_param":{"num_deleted":"0","num_feature":"22","num_nodes":"31","size_leaf_vector":"1"}},{"base_weights":[-3.3627782E-4,4.683839E-2,-6.5631664E-1,2.605016E-1,-9.6852876E-2,-3.1496656E-1,-7.4531573E-1,4.5530486E-1,1.06674284E-1,-1.839188E-2,-5.3087085E-1,2.5537702E-1,-4.2821497E-1,-5.375455E-1,-8.8399136E-1,3.2506965E-2,1.497735E-2,-5.8546173E-3,1.2843861E-2,-9.508639E-3,7.7543235E-3,-1.1359347E-2,-3.495397E-2,2.7355572E-2,-1.1659889E-2,-1.6413603E-2,-3.9990928E-2,-3.4439508E-2,-1.1412858E-2,-5.2046962E-2,-3.67179E-2],"categories":[],"categories_nodes":[],"categories_segments":[],"categories_sizes":[],"default_left":[0,0,0,0,0,0,0,0,0,0,0,0,0,0,0,0,0,0,0,0,0,0,0,0,0,0,0,0,0,0,0],"id":40,"left_children":[1,3,5,7,9,11,13,15,17,19,21,23,25,27,29,-1,-1,-1,-1,-1,-1,-1,-1,-1,-1,-1,-1,-1,-1,-1,-1],"loss_changes":[3.1685907E2,2.9329456E2,2.0634644E1,1.15057434E2,1.9450566E2,9.397305E0,1.5203278E1,5.1230194E1,7.221342E1,1.4422021E2,4.4511826E1,3.6123815E0,4.2070847E0,1.0151054E1,6.863083E0,0E0,0E0,0E0,0E0,0E0,0E0,0E0,0E0,0E0,0E0,0E0,0E0,0E0,0E0,0E0,0E0],"parents":[2147483647,0,0,1,1,2,2,3,3,4,4,5,5,6,6,7,7,8,8,9,9,10,10,11,11,12,12,13,13,14,14],"right_children":[2,4,6,8,10,12,14,16,18,20,22,24,26,28,30,-1,-1,-1,-1,-1,-1,-1,-1,-1,-1,-1,-1,-1,-1,-1,-1],"split_conditions":[3E0,3E0,2.7E1,3E0,4E0,4.963E3,3E0,1E0,4.2E1,5.1E1,1E1,2.3E1,3E0,1E0,4.8E1,3.2506965E-2,1.497735E-2,-5.8546173E-3,1.2843861E-2,-9.508639E-3,7.7543235E-3,-1.1359347E-2,-3.495397E-2,2.7355572E-2,-1.1659889E-2,-1.6413603E-2,-3.9990928E-2,-3.4439508E-2,-1.1412858E-2,-5.2046962E-2,-3.67179E-2],"split_indices":[7,18,0,4,11,3,18,1,9,9,2,0,13,8,9,0,0,0,0,0,0,0,0,0,0,0,0,0,0,0,0],"split_type":[0,0,0,0,0,0,0,0,0,0,0,0,0,0,0,0,0,0,0,0,0,0,0,0,0,0,0,0,0,0,0],"sum_hessian":[1.0237218E4,9.55127E3,6.859486E2,3.8402124E3,5.7110566E3,1.4279744E2,5.431511E2,1.6935638E3,2.1466487E3,4.8375713E3,8.734851E2,2.344886E1,1.1934858E2,2.1936487E2,3.237863E2,7.509906E2,9.425732E2,8.622788E2,1.2843698E3,2.4306292E3,2.4069424E3,3.1219626E2,5.612889E2,1.4607011E1,8.841849E0,9.553722E1,2.3811369E1,1.4649872E2,7.2866135E1,1.5512343E2,1.6866284E2],"tree_param":{"num_deleted":"0","num_feature":"22","num_nodes":"31","size_leaf_vector":"1"}},{"base_weights":[-6.838264E-3,9.14132E-2,-4.650107E-1,1.3498828E-1,-6.797636E-1,-6.39662E-1,-2.1872799E-1,3.337938E-1,-2.7570816E-2,-8.7033564E-1,-4.7660178E-1,-4.3851236E-1,-8.523305E-1,-1.6472465E-1,-9.708634E-1,1.9215364E-2,-1.7383998E-2,-7.6421076E-3,1.1286479E-2,-5.0933033E-2,-2.9613445E-2,-1.0211523E-2,-3.559419E-2,-1.6872114E-2,-5.2053005E-2,-3.3207037E-2,-4.817659E-2,-4.001764E-3,-3.2349408E-2,-2.9952854E-2,-6.222679E-2],"categories":[],"categories_nodes":[],"categories_segments":[],"categories_sizes":[],"default_left":[0,0,0,0,0,0,0,0,0,0,0,0,0,0,0,0,0,0,0,0,0,0,0,0,0,0,0,0,0,0,0],"id":41,"left_children":[1,3,5,7,9,11,13,15,17,19,21,23,25,27,29,-1,-1,-1,-1,-1,-1,-1,-1,-1,-1,-1,-1,-1,-1,-1,-1],"loss_changes":[4.6082245E2,2.8335095E2,7.761075E1,2.5788196E2,1.7046051E1,4.4845886E1,3.0364803E1,1.2369913E2,1.3935902E2,8.944443E0,1.3984753E1,3.2857704E1,1.0090698E1,2.8634876E1,4.3563004E0,0E0,0E0,0E0,0E0,0E0,0E0,0E0,0E0,0E0,0E0,0E0,0E0,0E0,0E0,0E0,0E0],"parents":[2147483647,0,0,1,1,2,2,3,3,4,4,5,5,6,6,7,7,8,8,9,9,10,10,11,11,12,12,13,13,14,14],"right_children":[2,4,6,8,10,12,14,16,18,20,22,24,26,28,30,-1,-1,-1,-1,-1,-1,-1,-1,-1,-1,-1,-1,-1,-1,-1,-1],"split_conditions":[3E0,5E0,1E0,1E0,5.2E1,3E0,3E0,3E0,1E0,1E0,3E0,1E0,1E1,1E0,3E0,1.9215364E-2,-1.7383998E-2,-7.6421076E-3,1.1286479E-2,-5.0933033E-2,-2.9613445E-2,-1.0211523E-2,-3.559419E-2,-1.6872114E-2,-5.2053005E-2,-3.3207037E-2,-4.817659E-2,-4.001764E-3,-3.2349408E-2,-2.9952854E-2,-6.222679E-2],"split_indices":[12,10,21,1,9,4,7,7,21,21,4,15,2,15,18,0,0,0,0,0,0,0,0,0,0,0,0,0,0,0,0],"split_type":[0,0,0,0,0,0,0,0,0,0,0,0,0,0,0,0,0,0,0,0,0,0,0,0,0,0,0,0,0,0,0],"sum_hessian":[1.0234889E4,8.428306E3,1.8065833E3,7.9783184E3,4.4998715E2,1.0560725E3,7.5051074E2,3.588556E3,4.3897627E3,2.3049338E2,2.1949377E2,5.443079E2,5.1176453E2,7.013713E2,4.913946E1,3.3413203E3,2.4723561E2,2.9374329E3,1.4523296E3,1.4857687E2,8.191652E1,1.0259451E2,1.1689926E2,4.6745764E2,7.6850296E1,1.9267183E2,3.190927E2,5.975947E2,1.03776505E2,2.2186396E1,2.6953068E1],"tree_param":{"num_deleted":"0","num_feature":"22","num_nodes":"31","size_leaf_vector":"1"}},{"base_weights":[4.916219E-4,2.3535609E-1,-1.6052626E-1,4.3331578E-1,6.550977E-2,-3.015509E-1,7.572797E-2,4.7969854E-1,-3.6923534E-1,2.6563832E-1,-9.9600874E-2,-1.929128E-1,-5.9301203E-1,2.9783538E-1,-8.7762035E-2,3.4602392E-2,1.6809596E-2,-1.9202757E-3,-3.2726564E-2,2.4314351E-2,4.5234784E-3,-7.678758E-4,-2.6885737E-2,-5.736516E-3,-3.206689E-2,-1.9984055E-2,-4.009974E-2,1.7910925E-3,2.3966981E-2,1.5407238E-3,-1.7597301E-2],"categories":[],"categories_nodes":[],"categories_segments":[],"categories_sizes":[],"default_left":[0,0,0,0,0,0,0,0,0,0,0,0,0,0,0,0,0,0,0,0,0,0,0,0,0,0,0,0,0,0,0],"id":42,"left_children":[1,3,5,7,9,11,13,15,17,19,21,23,25,27,29,-1,-1,-1,-1,-1,-1,-1,-1,-1,-1,-1,-1,-1,-1,-1,-1],"loss_changes":[3.8432828E2,1.389514E2,2.0090285E2,7.1224E1,7.357782E1,1.1943988E2,8.189201E1,5.476468E1,9.870539E0,3.885872E1,4.5033966E1,9.640891E1,4.1081757E1,4.545227E1,4.0715214E1,0E0,0E0,0E0,0E0,0E0,0E0,0E0,0E0,0E0,0E0,0E0,0E0,0E0,0E0,0E0,0E0],"parents":[2147483647,0,0,1,1,2,2,3,3,4,4,5,5,6,6,7,7,8,8,9,9,10,10,11,11,12,12,13,13,14,14],"right_children":[2,4,6,8,10,12,14,16,18,20,22,24,26,28,30,-1,-1,-1,-1,-1,-1,-1,-1,-1,-1,-1,-1,-1,-1,-1,-1],"split_conditions":[2E0,1E0,1E0,5E0,1E0,3E0,3E0,3E0,3E0,3E0,4E0,4E0,3E0,4.1E1,3E0,3.4602392E-2,1.6809596E-2,-1.9202757E-3,-3.2726564E-2,2.4314351E-2,4.5234784E-3,-7.678758E-4,-2.6885737E-2,-5.736516E-3,-3.206689E-2,-1.9984055E-2,-4.009974E-2,1.7910925E-3,2.3966981E-2,1.5407238E-3,-1.7597301E-2],"split_indices":[12,20,21,10,1,12,4,4,4,4,11,11,4,9,12,0,0,0,0,0,0,0,0,0,0,0,0,0,0,0,0],"split_type":[0,0,0,0,0,0,0,0,0,0,0,0,0,0,0,0,0,0,0,0,0,0,0,0,0,0,0,0,0,0,0],"sum_hessian":[1.0160742E4,4.132508E3,6.0282344E3,1.9076029E3,2.2249048E3,3.774743E3,2.2534917E3,1.8037584E3,1.0384441E2,1.0055189E3,1.2193859E3,2.7510056E3,1.0237371E3,9.5511285E2,1.298379E3,7.258632E2,1.0778953E3,4.861035E1,5.5234062E1,4.4420575E2,5.613132E2,1.02359705E3,1.9578879E2,2.3436484E3,4.0735718E2,5.332955E2,4.9044165E2,3.9135828E2,5.637546E2,8.9676E2,4.01619E2],"tree_param":{"num_deleted":"0","num_feature":"22","num_nodes":"31","size_leaf_vector":"1"}},{"base_weights":[-9.912443E-4,8.6877055E-2,-4.1662273E-1,3.201568E-1,-4.5574915E-2,-5.7703036E-1,-2.005933E-1,5.0619054E-1,1.5075961E-1,1.5559785E-1,-2.0061684E-1,-3.7408623E-1,-7.985327E-1,2.7302787E-2,-3.8203105E-1,2.7657941E-2,-6.77412E-3,1.923654E-2,-8.533236E-5,1.2258131E-2,-1.546823E-2,-1.453871E-2,7.718517E-3,-1.4643775E-2,-4.4153128E-2,-2.1567449E-2,-4.5451056E-2,4.509186E-3,-3.7381016E-2,-2.465456E-4,-2.4027133E-2],"categories":[],"categories_nodes":[],"categories_segments":[],"categories_sizes":[],"default_left":[0,0,0,0,0,0,0,0,0,0,0,0,0,0,0,0,0,0,0,0,0,0,0,0,0,0,0,0,0,0,0],"id":43,"left_children":[1,3,5,7,9,11,13,15,17,19,21,23,25,27,29,-1,-1,-1,-1,-1,-1,-1,-1,-1,-1,-1,-1,-1,-1,-1,-1],"loss_changes":[3.7049765E2,2.5877032E2,6.1234436E1,9.550345E1,1.6666321E2,4.534961E1,3.1268087E1,4.3627167E1,5.66807E1,9.6934326E1,9.662199E1,2.1723816E1,1.9270264E1,1.6440395E1,1.563501E1,0E0,0E0,0E0,0E0,0E0,0E0,0E0,0E0,0E0,0E0,0E0,0E0,0E0,0E0,0E0,0E0],"parents":[2147483647,0,0,1,1,2,2,3,3,4,4,5,5,6,6,7,7,8,8,9,9,10,10,11,11,12,12,13,13,14,14],"right_children":[2,4,6,8,10,12,14,16,18,20,22,24,26,28,30,-1,-1,-1,-1,-1,-1,-1,-1,-1,-1,-1,-1,-1,-1,-1,-1],"split_conditions":[3E0,1E1,1E0,1E0,3E0,3E0,1E0,3E0,3E0,4E0,4E0,4E0,2E0,3E0,6E0,2.7657941E-2,-6.77412E-3,1.923654E-2,-8.533236E-5,1.2258131E-2,-1.546823E-2,-1.453871E-2,7.718517E-3,-1.4643775E-2,-4.4153128E-2,-2.1567449E-2,-4.5451056E-2,4.509186E-3,-3.7381016E-2,-2.465456E-4,-2.4027133E-2],"split_indices":[12,2,21,20,4,4,1,7,18,11,5,11,18,7,2,0,0,0,0,0,0,0,0,0,0,0,0,0,0,0,0],"split_type":[0,0,0,0,0,0,0,0,0,0,0,0,0,0,0,0,0,0,0,0,0,0,0,0,0,0,0,0,0,0,0],"sum_hessian":[1.0142841E4,8.373415E3,1.7694257E3,3.03197E3,5.3414453E3,1.0144776E3,7.54948E2,1.4440792E3,1.5878907E3,2.3248547E3,3.0165906E3,5.308202E2,4.8365744E2,3.3500824E2,4.199398E2,1.3457153E3,9.83639E1,6.2589044E2,9.620003E2,1.9497509E3,3.7510382E2,2.4057695E3,6.1082104E2,4.5913705E2,7.168312E1,1.1300716E2,3.7065027E2,3.1068167E2,2.4326563E1,8.7198E1,3.327418E2],"tree_param":{"num_deleted":"0","num_feature":"22","num_nodes":"31","size_leaf_vector":"1"}},{"base_weights":[-5.944267E-3,2.1639712E-1,-1.5980673E-1,3.0307397E-1,-1.5985228E-1,-8.144478E-2,-5.6498104E-1,3.4595793E-1,-4.357151E-1,-7.3142305E-2,-6.32136E-1,-3.9095696E-2,-8.4457654E-1,-4.5366347E-1,-9.034653E-1,2.81442E-2,9.773716E-3,6.7562344E-3,-2.8914375E-2,-1.0106359E-3,-4.140953E-2,-7.96966E-3,-3.6789205E-2,9.189979E-3,-9.444452E-3,-2.8199507E-2,-4.8295084E-2,-4.6923826E-4,-2.8614623E-2,-2.9015942E-2,-4.8099976E-2],"categories":[],"categories_nodes":[],"categories_segments":[],"categories_sizes":[],"default_left":[0,0,0,0,0,0,0,0,0,0,0,0,0,0,0,0,0,0,0,0,0,0,0,0,0,0,0,0,0,0,0],"id":44,"left_children":[1,3,5,7,9,11,13,15,17,19,21,23,25,27,29,-1,-1,-1,-1,-1,-1,-1,-1,-1,-1,-1,-1,-1,-1,-1,-1],"loss_changes":[3.4410953E2,1.3421158E2,1.8870369E2,1.0609531E2,3.1524633E1,1.609935E2,3.5884705E1,1.0307959E2,1.5044952E1,2.6059034E1,5.7358437E0,1.5768254E2,8.371429E0,3.830397E1,3.9317932E0,0E0,0E0,0E0,0E0,0E0,0E0,0E0,0E0,0E0,0E0,0E0,0E0,0E0,0E0,0E0,0E0],"parents":[2147483647,0,0,1,1,2,2,3,3,4,4,5,5,6,6,7,7,8,8,9,9,10,10,11,11,12,12,13,13,14,14],"right_children":[2,4,6,8,10,12,14,16,18,20,22,24,26,28,30,-1,-1,-1,-1,-1,-1,-1,-1,-1,-1,-1,-1,-1,-1,-1,-1],"split_conditions":[2E0,1E0,1E0,5E0,4E0,5E0,3E0,3E0,3E0,3E0,2E0,3E0,9E0,2E0,2.5E1,2.81442E-2,9.773716E-3,6.7562344E-3,-2.8914375E-2,-1.0106359E-3,-4.140953E-2,-7.96966E-3,-3.6789205E-2,9.189979E-3,-9.444452E-3,-2.8199507E-2,-4.8295084E-2,-4.6923826E-4,-2.8614623E-2,-2.9015942E-2,-4.8099976E-2],"split_indices":[12,15,15,10,11,10,12,4,6,7,18,18,2,18,0,0,0,0,0,0,0,0,0,0,0,0,0,0,0,0,0],"split_type":[0,0,0,0,0,0,0,0,0,0,0,0,0,0,0,0,0,0,0,0,0,0,0,0,0,0,0,0,0,0,0],"sum_hessian":[1.0056731E4,4.1129053E3,5.943826E3,3.342976E3,7.699293E2,4.981575E3,9.6225073E2,3.1600771E3,1.8289903E2,6.5147516E2,1.18454155E2,4.720659E3,2.609161E2,7.258727E2,2.3637808E2,1.2931816E3,1.8668955E3,3.6562035E1,1.4633699E2,6.097574E2,4.1717793E1,2.1757082E1,9.669707E1,1.8972656E3,2.8233936E3,8.0467926E1,1.8044817E2,1.5320016E2,5.726725E2,3.792455E1,1.9845352E2],"tree_param":{"num_deleted":"0","num_feature":"22","num_nodes":"31","size_leaf_vector":"1"}},{"base_weights":[-2.839366E-3,7.776506E-2,-3.8797876E-1,1.2349855E-1,-5.4402035E-1,-3.116314E-1,-8.6700875E-1,2.030478E-1,-2.3305537E-1,-7.0389426E-1,-2.6721293E-1,-5.8060203E-2,-4.6020943E-1,-1.0364528E0,-6.4958864E-1,4.1088024E-3,2.3946933E-2,8.990848E-3,-1.7003149E-2,-4.2046525E-2,-2.0614557E-2,-6.2015424E-3,-4.119555E-2,9.751069E-3,-1.21658975E-2,-3.1640742E-2,-1.1693706E-2,-3.1063227E-2,-5.5561837E-2,-1.6452784E-2,-3.6922228E-2],"categories":[],"categories_nodes":[],"categories_segments":[],"categories_sizes":[],"default_left":[0,0,0,0,0,0,0,0,0,0,0,0,0,0,0,0,0,0,0,0,0,0,0,0,0,0,0,0,0,0,0],"id":45,"left_children":[1,3,5,7,9,11,13,15,17,19,21,23,25,27,29,-1,-1,-1,-1,-1,-1,-1,-1,-1,-1,-1,-1,-1,-1,-1,-1],"loss_changes":[3.1194385E2,2.3635796E2,6.333136E1,2.1960869E2,2.5014175E1,5.6544037E1,8.113358E0,2.1103207E2,6.2465553E1,1.4054123E1,1.6645306E1,2.6111176E1,3.6834015E1,3.4193878E0,2.8085632E0,0E0,0E0,0E0,0E0,0E0,0E0,0E0,0E0,0E0,0E0,0E0,0E0,0E0,0E0,0E0,0E0],"parents":[2147483647,0,0,1,1,2,2,3,3,4,4,5,5,6,6,7,7,8,8,9,9,10,10,11,11,12,12,13,13,14,14],"right_children":[2,4,6,8,10,12,14,16,18,20,22,24,26,28,30,-1,-1,-1,-1,-1,-1,-1,-1,-1,-1,-1,-1,-1,-1,-1,-1],"split_conditions":[3E0,3E0,1E0,1E0,1E0,1E1,1E0,1E0,2E0,1E0,1E0,3E0,1E0,2.5E1,2E0,4.1088024E-3,2.3946933E-2,8.990848E-3,-1.7003149E-2,-4.2046525E-2,-2.0614557E-2,-6.2015424E-3,-4.119555E-2,9.751069E-3,-1.21658975E-2,-3.1640742E-2,-1.1693706E-2,-3.1063227E-2,-5.5561837E-2,-1.6452784E-2,-3.6922228E-2],"split_indices":[12,7,15,15,21,2,21,21,18,8,15,18,21,0,18,0,0,0,0,0,0,0,0,0,0,0,0,0,0,0,0],"split_type":[0,0,0,0,0,0,0,0,0,0,0,0,0,0,0,0,0,0,0,0,0,0,0,0,0,0,0,0,0,0,0],"sum_hessian":[1.0046489E4,8.308443E3,1.7380459E3,7.739956E3,5.68487E2,1.5005415E3,2.3750435E2,6.3284688E3,1.4114875E3,3.5937952E2,2.0910747E2,5.5490375E2,9.4563776E2,1.3136188E2,1.0614247E2,4.4014346E3,1.9270339E3,2.9038843E2,1.1210991E3,2.4320416E2,1.16175354E2,1.673007E2,4.1806755E1,2.3449973E2,3.2040402E2,5.354799E2,4.101578E2,2.1470211E1,1.0989166E2,2.4058529E1,8.208394E1],"tree_param":{"num_deleted":"0","num_feature":"22","num_nodes":"31","size_leaf_vector":"1"}},{"base_weights":[5.7046204E-3,8.441021E-2,-3.7890255E-1,-8.817399E-2,2.5983587E-1,-5.417746E-1,-1.6310984E-1,-1.1714915E-2,-4.4800085E-1,3.3178115E-1,-1.4100775E-1,-3.376213E-1,-7.689096E-1,-7.910486E-2,-5.6332E-1,9.748314E-3,-7.4641667E-3,-3.0724023E-2,-1.0749509E-2,1.886133E-2,-1.4750822E-2,5.0309855E-3,-1.6470632E-2,-1.2560491E-2,-4.4787955E-2,-2.9726857E-2,-4.7241814E-2,-1.4947451E-3,-3.7847266E-2,-1.8001376E-3,-3.8242936E-2],"categories":[],"categories_nodes":[],"categories_segments":[],"categories_sizes":[],"default_left":[0,0,0,0,0,0,0,0,0,0,0,0,0,0,0,0,0,0,0,0,0,0,0,0,0,0,0,0,0,0,0],"id":46,"left_children":[1,3,5,7,9,11,13,15,17,19,21,23,25,27,29,-1,-1,-1,-1,-1,-1,-1,-1,-1,-1,-1,-1,-1,-1,-1,-1],"loss_changes":[3.033629E2,2.5189134E2,5.9746613E1,1.1538819E2,1.1903204E2,4.470813E1,2.4621744E1,9.841423E1,2.8380524E1,9.9761475E1,2.8646866E1,2.4492405E1,1.3496063E1,2.0243633E1,1.3482315E1,0E0,0E0,0E0,0E0,0E0,0E0,0E0,0E0,0E0,0E0,0E0,0E0,0E0,0E0,0E0,0E0],"parents":[2147483647,0,0,1,1,2,2,3,3,4,4,5,5,6,6,7,7,8,8,9,9,10,10,11,11,12,12,13,13,14,14],"right_children":[2,4,6,8,10,12,